{"learner":{"attributes":{},"feature_names":[],"feature_types":[],"gradient_booster":{"model":{"gbtree_model_param":{"num_parallel_tree":"1","num_trees":"100"},"iteration_indptr":[0,1,2,3,4,5,6,7,8,9,10,11,12,13,14,15,16,17,18,19,20,21,22,23,24,25,26,27,28,29,30,31,32,33,34,35,36,37,38,39,40,41,42,43,44,45,46,47,48,49,50,51,52,53,54,55,56,57,58,59,60,61,62,63,64,65,66,67,68,69,70,71,72,73,74,75,76,77,78,79,80,81,82,83,84,85,86,87,88,89,90,91,92,93,94,95,96,97,98,99,100],"tree_info":[0,0,0,0,0,0,0,0,0,0,0,0,0,0,0,0,0,0,0,0,0,0,0,0,0,0,0,0,0,0,0,0,0,0,0,0,0,0,0,0,0,0,0,0,0,0,0,0,0,0,0,0,0,0,0,0,0,0,0,0,0,0,0,0,0,0,0,0,0,0,0,0,0,0,0,0,0,0,0,0,0,0,0,0,0,0,0,0,0,0,0,0,0,0,0,0,0,0,0,0],"trees":[{"base_weights":[4.1841417E-8,-4.377023E0,4.4007096E0,-7.277332E0,-2.8700607E0,1.9190449E0,6.84605E0,-2.4071567E0,-6.5360274E0,-4.3320737E0,-1.3052506E0,-5.986234E-1,3.171279E0,3.95114E0,8.35225E0,-6.826909E0,-6.081397E0,-1.6631761E0,-3.0804803E0,-2.9870372E0,4.722783E-1,-7.491591E-1,-5.6162786E-1,1.9724216E0,4.4334593E0,3.6999872E0,4.503169E0,7.4113317E0,2.7937853E0,-2.090922E0,-1.9771563E0,-6.3007736E0,-1.7292236E0,-3.1124399E0,-2.9549766E0,-3.2730296E0,-2.4772682E0,1.6374813E-1,9.0918607E-1,-1.0064259E0,-6.870556E-1,-5.7677424E-1,-3.424588E-1,2.0686731E0,1.9396448E0,2.5524564E0,4.4351244E0,3.3946714E0,3.8875926E0,4.2811832E0,4.646871E0,7.108734E0,7.777223E0,-3.683201E-1,-1.8911271E0,-9.3461436E-1,-5.940231E-1,-7.7072865E-1,-8.9758897E-1,-1.0661352E0,-9.2311895E-1,-7.810038E-1,-6.293483E-1,1.6599413E-2,9.334113E-2,2.1861668E-1,3.789578E-1,3.689065E-1,-3.104381E-1,-2.3501675E-1,-1.6411424E-1,-1.5931448E-1,-1.9716458E-1,-8.207295E-2,-3.683083E-1,1.2251974E-1,6.21591E-1,5.6075245E-1,5.958211E-1,9.111331E-1,-5.3320173E-2,5.389065E-1,1.3307366E0,4.3145117E-1,1.0205022E0,1.1243016E0,1.1872851E0,9.368254E-1,1.2953074E0,1.3981261E0,7.6854205E-1,2.062643E0,2.170149E0,2.2713766E0,2.4068475E0],"categories":[],"categories_nodes":[],"categories_segments":[],"categories_sizes":[],"default_left":[0,0,0,0,0,0,0,0,0,0,0,0,0,0,0,0,0,0,0,0,0,0,1,1,0,0,0,0,0,0,0,0,0,1,0,0,0,0,0,0,0,1,1,0,0,0,0,0,0,0,1,0,0,0,0,0,0,0,0,0,0,0,0,0,0,0,0,0,0,0,0,0,0,0,0,0,0,0,0,0,0,0,0,0,0,0,0,0,0,0,0,0,0,0,0],"id":0,"left_children":[1,3,5,7,9,11,13,-1,15,17,19,21,23,25,27,29,31,-1,33,35,37,39,41,43,45,47,49,51,-1,-1,-1,53,-1,55,57,59,61,63,65,67,69,71,73,75,77,79,81,83,85,87,89,91,93,-1,-1,-1,-1,-1,-1,-1,-1,-1,-1,-1,-1,-1,-1,-1,-1,-1,-1,-1,-1,-1,-1,-1,-1,-1,-1,-1,-1,-1,-1,-1,-1,-1,-1,-1,-1,-1,-1,-1,-1,-1,-1],"loss_changes":[1.2563068E6,1.4289525E5,1.9735312E5,6.134625E3,4.922722E4,5.0896094E4,7.139331E4,0E0,7.010156E2,1.685664E4,3.1079465E4,2.9446655E1,1.6304781E4,7.6085156E2,9.6666875E3,6.940625E1,1.16828125E2,0E0,1.27578125E1,7.706992E2,6.812612E2,1.6164429E1,1.4106567E1,1.34375E1,5.1328125E0,2.0789844E2,3.5898438E1,5.4778125E2,0E0,0E0,0E0,1.1785156E1,0E0,8.3046875E0,8.456055E0,1.7717578E2,8.6581055E1,4.7345825E1,1.3272778E2,1.4149475E1,1.1076294E1,1.4470581E1,1.6798687E1,6.7612305E0,9.837891E0,9.802181E0,1.21875E0,1.534375E1,8.5234375E0,1.6121094E1,1.772461E1,3.759375E1,6.3453125E1,0E0,0E0,0E0,0E0,0E0,0E0,0E0,0E0,0E0,0E0,0E0,0E0,0E0,0E0,0E0,0E0,0E0,0E0,0E0,0E0,0E0,0E0,0E0,0E0,0E0,0E0,0E0,0E0,0E0,0E0,0E0,0E0,0E0,0E0,0E0,0E0,0E0,0E0,0E0,0E0,0E0,0E0],"parents":[2147483647,0,0,1,1,2,2,3,3,4,4,5,5,6,6,8,8,9,9,10,10,11,11,12,12,13,13,14,14,15,15,16,16,18,18,19,19,20,20,21,21,22,22,23,23,24,24,25,25,26,26,27,27,31,31,33,33,34,34,35,35,36,36,37,37,38,38,39,39,40,40,41,41,42,42,43,43,44,44,45,45,46,46,47,47,48,48,49,49,50,50,51,51,52,52],"right_children":[2,4,6,8,10,12,14,-1,16,18,20,22,24,26,28,30,32,-1,34,36,38,40,42,44,46,48,50,52,-1,-1,-1,54,-1,56,58,60,62,64,66,68,70,72,74,76,78,80,82,84,86,88,90,92,94,-1,-1,-1,-1,-1,-1,-1,-1,-1,-1,-1,-1,-1,-1,-1,-1,-1,-1,-1,-1,-1,-1,-1,-1,-1,-1,-1,-1,-1,-1,-1,-1,-1,-1,-1,-1,-1,-1,-1,-1,-1,-1],"split_conditions":[3.0408347E-1,-8.653786E-1,1E0,1E0,1E0,8.888145E-1,8.888145E-1,-2.4071567E0,2.7975208E-1,-2.8064758E-1,-2.8064758E-1,-2.638E-1,1.4735456E0,5.210639E-1,1.4735456E0,-3.2352763E-1,1.0036877E0,-1.6631761E0,8.4281313E-1,4.00408E-1,2.3953342E-1,-3.364E-1,3.38E-2,-1.0877E0,-8.26E-2,-6.452768E-1,9.2325044E-1,1.18877485E-1,2.7937853E0,-2.090922E0,-1.9771563E0,-2.978E0,-1.7292236E0,-5.7E-3,-9.156E-1,-6.0505813E-1,1.4058741E0,-4.039649E-1,1.084125E0,-8.802E-1,2.3953342E-1,1.591E-1,1.129E-1,-2.638E-1,-2.0287168E-1,-1.007E-1,-4.013E-1,2.62E-2,-2.4309033E-1,-1.8116E0,1.6161E0,-8.4637004E-1,8.4281313E-1,-3.683201E-1,-1.8911271E0,-9.3461436E-1,-5.940231E-1,-7.7072865E-1,-8.9758897E-1,-1.0661352E0,-9.2311895E-1,-7.810038E-1,-6.293483E-1,1.6599413E-2,9.334113E-2,2.1861668E-1,3.789578E-1,3.689065E-1,-3.104381E-1,-2.3501675E-1,-1.6411424E-1,-1.5931448E-1,-1.9716458E-1,-8.207295E-2,-3.683083E-1,1.2251974E-1,6.21591E-1,5.6075245E-1,5.958211E-1,9.111331E-1,-5.3320173E-2,5.389065E-1,1.3307366E0,4.3145117E-1,1.0205022E0,1.1243016E0,1.1872851E0,9.368254E-1,1.2953074E0,1.3981261E0,7.6854205E-1,2.062643E0,2.170149E0,2.2713766E0,2.4068475E0],"split_indices":[6,6,8,8,8,6,6,0,7,6,6,5,6,7,6,7,7,0,7,7,7,2,1,0,2,7,7,7,0,0,0,3,0,1,1,7,7,7,7,2,7,0,4,2,7,2,4,5,7,0,4,7,7,0,0,0,0,0,0,0,0,0,0,0,0,0,0,0,0,0,0,0,0,0,0,0,0,0,0,0,0,0,0,0,0,0,0,0,0,0,0,0,0,0,0],"split_type":[0,0,0,0,0,0,0,0,0,0,0,0,0,0,0,0,0,0,0,0,0,0,0,0,0,0,0,0,0,0,0,0,0,0,0,0,0,0,0,0,0,0,0,0,0,0,0,0,0,0,0,0,0,0,0,0,0,0,0,0,0,0,0,0,0,0,0,0,0,0,0,0,0,0,0,0,0,0,0,0,0,0,0,0,0,0,0,0,0,0,0,0,0,0,0],"sum_hessian":[6.522E4,3.2698E4,3.2522E4,1.1179E4,2.1519E4,1.6142E4,1.638E4,5.565E3,5.614E3,1.1124E4,1.0395E4,5.362E3,1.078E4,5.607E3,1.0773E4,3.415E3,2.199E3,5.65E3,5.474E3,5.341E3,5.054E3,1.054E3,4.308E3,5.53E3,5.25E3,3.859E3,1.748E3,5.446E3,5.327E3,2.111E3,1.304E3,1.289E3,9.1E2,4.344E3,1.13E3,3.418E3,1.923E3,2.963E3,2.091E3,2.02E2,8.52E2,4.028E3,2.8E2,1.389E3,4.141E3,6E0,5.244E3,1.476E3,2.383E3,6.99E2,1.049E3,2.992E3,2.454E3,1E0,1.288E3,4.331E3,1.3E1,1.05E2,1.025E3,1.398E3,2.02E3,1.439E3,4.84E2,1.708E3,1.255E3,1.387E3,7.04E2,2E0,2E2,5.02E2,3.5E2,2.573E3,1.455E3,2.61E2,1.9E1,3E0,1.386E3,1.661E3,2.48E3,5E0,1E0,2E0,5.242E3,6E0,1.47E3,8.13E2,1.57E3,2.4E1,6.75E2,1.041E3,8E0,1.064E3,1.928E3,1.352E3,1.102E3],"tree_param":{"num_deleted":"0","num_feature":"9","num_nodes":"95","size_leaf_vector":"1"}},{"base_weights":[8.176753E-5,-3.0644672E0,3.0812147E0,-5.095068E0,-2.0093937E0,1.3435471E0,4.7934475E0,-1.6851393E0,-4.576654E0,-3.032889E0,-9.1393435E-1,-4.192505E-1,2.2203248E0,2.7672534E0,5.847662E0,-4.8408475E0,-4.323902E0,-3.8810387E0,-2.1569202E0,-2.0915623E0,3.307348E-1,-4.9145722E-1,-3.799106E-1,1.3810385E0,3.1039414E0,2.596142E0,3.1668012E0,5.189568E0,1.955807E0,-5.0000777E0,-1.4294178E0,-4.454561E0,-4.036753E0,-3.5690472E0,-3.8962734E0,-2.165046E0,-1.8659842E0,-2.358138E0,-1.8120409E0,8.084774E-2,6.0978335E-1,-4.7360522E-1,-8.2340497E-1,-3.8807115E-1,1.347316E-1,1.3618629E0,1.4955777E0,3.065479E0,3.1974633E0,2.3772533E0,2.7267215E0,3.0663836E0,3.3837233E0,4.996831E0,5.4734926E0,-1.5015429E0,-5.629091E-1,-4.065458E-1,-1.3371073E0,-1.2359877E0,-1.0997604E0,-9.16772E-1,-1.1112196E0,-1.1704977E0,-9.177469E-1,-4.9126872E-1,-6.503484E-1,-7.0962214E-1,-4.2292437E-1,-7.4652314E-1,-6.65894E-1,-5.822109E-1,-4.741067E-1,1.298227E-1,1.6061597E-2,1.3613954E-1,2.528879E-1,-1.4079948E-1,-5.726541E-1,9.8630294E-2,-2.6732028E-1,-1.2233294E-1,-4.5533635E-2,-1.16516195E-1,1.1991565E-1,2.8391483E-1,4.117564E-1,4.7448003E-1,3.6787623E-1,3.956636E-1,9.2009825E-1,9.6285737E-1,7.490009E-1,7.1761286E-1,5.0376177E-1,3.8526586E-1,8.192733E-1,9.2445606E-1,4.8314977E-1,1.018483E0,3.254413E-1,1.4444311E0,1.5249021E0,1.6141137E0,1.7398894E0],"categories":[],"categories_nodes":[],"categories_segments":[],"categories_sizes":[],"default_left":[0,0,0,0,0,0,0,0,0,0,0,0,0,0,0,0,0,0,0,0,0,0,0,1,1,0,0,0,0,1,0,0,0,0,0,0,1,0,0,0,0,0,0,1,1,0,0,0,0,1,0,1,1,0,0,0,0,0,0,0,0,0,0,0,0,0,0,0,0,0,0,0,0,0,0,0,0,0,0,0,0,0,0,0,0,0,0,0,0,0,0,0,0,0,0,0,0,0,0,0,0,0,0,0,0],"id":1,"left_children":[1,3,5,7,9,11,13,-1,15,17,19,21,23,25,27,29,31,33,35,37,39,41,43,45,47,49,51,53,-1,55,-1,57,59,61,63,65,67,69,71,73,75,77,79,81,83,85,87,89,91,93,95,97,99,101,103,-1,-1,-1,-1,-1,-1,-1,-1,-1,-1,-1,-1,-1,-1,-1,-1,-1,-1,-1,-1,-1,-1,-1,-1,-1,-1,-1,-1,-1,-1,-1,-1,-1,-1,-1,-1,-1,-1,-1,-1,-1,-1,-1,-1,-1,-1,-1,-1,-1,-1],"loss_changes":[6.1584456E5,7.004522E4,9.675894E4,3.0000625E3,2.412539E4,2.4951254E4,3.4974375E4,0E0,3.540078E2,8.256984E3,1.5238702E4,1.5047424E1,7.9909805E3,3.751836E2,4.7286562E3,9.355469E0,9.003125E1,1.29453125E1,8.902344E0,3.937793E2,3.5243896E2,1.0798187E1,1.4650665E1,1.0112305E1,9.0859375E0,1.0590234E2,2.6154297E1,2.7073438E2,0E0,4.2929688E0,0E0,8.988281E0,1.3008789E1,7.7333984E0,1.23046875E1,4.2597656E0,3.2210754E1,4.3749023E1,7.4793945E1,2.5616098E1,8.6473816E1,1.0107971E1,7.6990585E0,1.5871704E1,7.779336E0,1.9731445E1,1.620105E1,5.859375E0,4.7246094E0,1.1232422E1,1.1333984E1,2.0532227E1,9.755371E0,2.6609375E1,3.5367188E1,0E0,0E0,0E0,0E0,0E0,0E0,0E0,0E0,0E0,0E0,0E0,0E0,0E0,0E0,0E0,0E0,0E0,0E0,0E0,0E0,0E0,0E0,0E0,0E0,0E0,0E0,0E0,0E0,0E0,0E0,0E0,0E0,0E0,0E0,0E0,0E0,0E0,0E0,0E0,0E0,0E0,0E0,0E0,0E0,0E0,0E0,0E0,0E0,0E0,0E0],"parents":[2147483647,0,0,1,1,2,2,3,3,4,4,5,5,6,6,8,8,9,9,10,10,11,11,12,12,13,13,14,14,15,15,16,16,17,17,18,18,19,19,20,20,21,21,22,22,23,23,24,24,25,25,26,26,27,27,29,29,31,31,32,32,33,33,34,34,35,35,36,36,37,37,38,38,39,39,40,40,41,41,42,42,43,43,44,44,45,45,46,46,47,47,48,48,49,49,50,50,51,51,52,52,53,53,54,54],"right_children":[2,4,6,8,10,12,14,-1,16,18,20,22,24,26,28,30,32,34,36,38,40,42,44,46,48,50,52,54,-1,56,-1,58,60,62,64,66,68,70,72,74,76,78,80,82,84,86,88,90,92,94,96,98,100,102,104,-1,-1,-1,-1,-1,-1,-1,-1,-1,-1,-1,-1,-1,-1,-1,-1,-1,-1,-1,-1,-1,-1,-1,-1,-1,-1,-1,-1,-1,-1,-1,-1,-1,-1,-1,-1,-1,-1,-1,-1,-1,-1,-1,-1,-1,-1,-1,-1,-1,-1],"split_conditions":[3.0408347E-1,-8.653786E-1,1E0,1E0,1E0,8.888145E-1,8.888145E-1,-1.6851393E0,-4.1997097E-2,-2.8064758E-1,-2.8064758E-1,-3.222E-1,1.4735456E0,5.612826E-1,1.4735456E0,-1.0072446E0,1.0036877E0,-1.5301E0,1.888498E0,7.865884E-2,7.865884E-2,1.6874E0,2.1700284E0,8.83E-1,9.326E-1,-6.452768E-1,1.3656555E0,2.3953342E-1,1.955807E0,3.0146E0,-1.4294178E0,-2.978E0,1.9287165E0,-7.257141E-1,2.4113402E0,-1.2065E0,-1.224E-1,-6.0505813E-1,9.634691E-1,-1.4094E0,8.830318E-1,2.7733E0,-6.782E-1,2.619E-1,-4.451E-1,-3.617E-1,1.7276E0,-3.617E-1,1.4765E0,1.8885E0,-2.6562E0,1.6557E0,2.2907E0,-8.4637004E-1,1.3656555E0,-1.5015429E0,-5.629091E-1,-4.065458E-1,-1.3371073E0,-1.2359877E0,-1.0997604E0,-9.16772E-1,-1.1112196E0,-1.1704977E0,-9.177469E-1,-4.9126872E-1,-6.503484E-1,-7.0962214E-1,-4.2292437E-1,-7.4652314E-1,-6.65894E-1,-5.822109E-1,-4.741067E-1,1.298227E-1,1.6061597E-2,1.3613954E-1,2.528879E-1,-1.4079948E-1,-5.726541E-1,9.8630294E-2,-2.6732028E-1,-1.2233294E-1,-4.5533635E-2,-1.16516195E-1,1.1991565E-1,2.8391483E-1,4.117564E-1,4.7448003E-1,3.6787623E-1,3.956636E-1,9.2009825E-1,9.6285737E-1,7.490009E-1,7.1761286E-1,5.0376177E-1,3.8526586E-1,8.192733E-1,9.2445606E-1,4.8314977E-1,1.018483E0,3.254413E-1,1.4444311E0,1.5249021E0,1.6141137E0,1.7398894E0],"split_indices":[6,6,8,8,8,6,6,0,7,6,6,4,6,7,6,7,7,3,7,7,7,3,7,3,2,7,7,7,0,0,0,3,7,7,7,2,0,7,7,0,7,0,1,2,2,4,3,1,2,0,0,4,0,7,7,0,0,0,0,0,0,0,0,0,0,0,0,0,0,0,0,0,0,0,0,0,0,0,0,0,0,0,0,0,0,0,0,0,0,0,0,0,0,0,0,0,0,0,0,0,0,0,0,0,0],"split_type":[0,0,0,0,0,0,0,0,0,0,0,0,0,0,0,0,0,0,0,0,0,0,0,0,0,0,0,0,0,0,0,0,0,0,0,0,0,0,0,0,0,0,0,0,0,0,0,0,0,0,0,0,0,0,0,0,0,0,0,0,0,0,0,0,0,0,0,0,0,0,0,0,0,0,0,0,0,0,0,0,0,0,0,0,0,0,0,0,0,0,0,0,0,0,0,0,0,0,0,0,0,0,0,0,0],"sum_hessian":[6.522E4,3.2698E4,3.2522E4,1.1179E4,2.1519E4,1.6142E4,1.638E4,5.565E3,5.614E3,1.1124E4,1.0395E4,5.362E3,1.078E4,5.607E3,1.0773E4,2.736E3,2.878E3,5.65E3,5.474E3,5.341E3,5.054E3,1.887E3,3.475E3,5.53E3,5.25E3,3.931E3,1.676E3,5.446E3,5.327E3,8.64E2,1.872E3,1.968E3,9.1E2,2.74E2,5.376E3,5.319E3,1.55E2,2.73E3,2.611E3,2.667E3,2.387E3,1.793E3,9.4E1,3.421E3,5.4E1,4.748E3,7.82E2,3.744E3,1.506E3,1.476E3,2.455E3,1.156E3,5.2E2,3.255E3,2.191E3,8.62E2,2E0,2E0,1.966E3,7.35E2,1.75E2,6.2E1,2.12E2,5.338E3,3.8E1,3.1E1,5.288E3,7.2E1,8.3E1,1.398E3,1.332E3,1.674E3,9.37E2,1.91E2,2.476E3,1.432E3,9.55E2,1.789E3,4E0,5E0,8.9E1,3.157E3,2.64E2,1.8E1,3.6E1,1.21E2,4.627E3,5.89E2,1.93E2,4E0,3.74E3,1.477E3,2.9E1,1.443E3,3.3E1,8E0,2.447E3,1.143E3,1.3E1,5.17E2,3E0,1.064E3,2.191E3,1.718E3,4.73E2],"tree_param":{"num_deleted":"0","num_feature":"9","num_nodes":"105","size_leaf_vector":"1"}},{"base_weights":[4.7919602E-5,-2.1456647E0,2.1573722E0,-3.567376E0,-1.4069623E0,9.407008E-1,3.3562348E0,-3.9322941E0,-3.2050066E0,-2.1235964E0,-6.3994026E-1,-2.936707E-1,1.5546507E0,1.9380007E0,4.0941315E0,-3.9070907E0,-4.062416E0,-3.333717E0,-2.9265141E0,-2.7174551E0,-1.5102593E0,-1.4645561E0,2.3162001E-1,6.175563E-1,-2.96342E-1,9.67005E-1,2.1733356E0,1.7859796E0,2.1711078E0,3.6338584E0,1.3691751E0,-1.17301E0,-8.7789863E-1,-1.219786E0,-1.6754476E0,-3.4516377E0,-3.232886E0,-2.9738562E0,-2.6298215E0,-1.73725E0,-2.7201045E0,-1.6020064E0,-1.4915708E0,-1.6008002E0,-1.1684251E0,9.058494E-2,4.7653067E-1,9.064779E-1,-2.8097907E-1,-2.9137474E-1,-7.084148E-1,1.0705588E0,9.462194E-1,2.1759112E0,1.3036265E0,1.6649039E0,1.8779978E0,2.0630727E0,2.2883928E0,3.5273185E0,3.8989651E0,-8.447571E-2,-6.6947573E-1,-1.0142726E0,-1.0948094E0,-9.1456115E-1,-9.902602E-1,-9.087007E-1,-8.331365E-1,-7.96814E-1,-9.80248E-2,-7.43588E-2,-5.7237965E-1,-8.290552E-1,-7.959575E-1,-5.105977E-1,-4.3289092E-1,-3.9512202E-1,-4.5677522E-1,-5.227264E-1,-4.537039E-1,-3.6191878E-1,-2.2106315E-1,-5.749527E-3,4.9599927E-2,1.3041551E-1,3.982967E-1,4.939689E-1,1.3373628E-1,-1.16585314E-1,-8.075423E-2,-2.843794E-1,1.9674474E-1,6.462391E-1,3.1577808E-1,2.7999845E-1,3.3914968E-1,6.4826214E-1,7.098267E-1,4.8939404E-1,-7.533181E-2,5.486124E-1,4.7815943E-1,6.9820845E-1,5.5539083E-1,5.9588355E-1,6.835633E-1,7.178216E-1,6.4096403E-1,1.0271714E0,1.0883158E0,1.1492237E0,1.2308606E0],"categories":[],"categories_nodes":[],"categories_segments":[],"categories_sizes":[],"default_left":[0,0,0,0,0,0,0,1,0,0,0,0,0,0,0,0,0,0,0,0,0,0,0,1,1,1,1,0,0,0,0,0,0,0,0,0,1,1,1,0,1,0,0,0,1,0,0,1,0,0,0,0,1,1,0,0,0,1,0,0,0,0,0,0,0,0,0,0,0,0,0,0,0,0,0,0,0,0,0,0,0,0,0,0,0,0,0,0,0,0,0,0,0,0,0,0,0,0,0,0,0,0,0,0,0,0,0,0,0,0,0,0,0],"id":2,"left_children":[1,3,5,7,9,11,13,15,17,19,21,23,25,27,29,31,33,35,37,39,41,43,45,47,49,51,53,55,57,59,-1,-1,-1,-1,61,63,65,67,69,71,73,75,77,79,81,83,85,87,-1,89,91,93,95,97,99,101,103,105,107,109,111,-1,-1,-1,-1,-1,-1,-1,-1,-1,-1,-1,-1,-1,-1,-1,-1,-1,-1,-1,-1,-1,-1,-1,-1,-1,-1,-1,-1,-1,-1,-1,-1,-1,-1,-1,-1,-1,-1,-1,-1,-1,-1,-1,-1,-1,-1,-1,-1,-1,-1,-1,-1],"loss_changes":[3.019125E5,3.433617E4,4.7435594E4,1.4657969E3,1.1827629E4,1.2234304E4,1.7134953E4,2.375E0,1.9151562E2,4.0480156E3,7.4719688E3,1.3237305E1,3.9175176E3,1.9485352E2,2.3130781E3,2.0859375E0,6.0058594E-1,3.441797E1,1.7223633E1,9.949219E0,6.998047E0,2.136582E2,1.7456152E2,8.033461E0,1.0740234E1,1.089209E1,8.927734E0,3.4753906E1,2.3269531E1,1.4009375E2,0E0,0E0,0E0,0E0,1.697156E0,1.2162109E1,1.6029297E1,8.1875E0,1.4473145E1,4.1029015E0,9.035156E0,1.2062012E1,2.2688477E1,4.3163086E1,2.6754639E1,2.6328556E1,6.515292E1,4.039282E0,0E0,1.130368E1,2.1207281E1,1.5583496E1,9.908203E0,9.855469E0,9.580008E0,1.4272461E1,1.8771484E1,1.4668945E1,1.1524414E1,2.803125E1,5.8710938E0,0E0,0E0,0E0,0E0,0E0,0E0,0E0,0E0,0E0,0E0,0E0,0E0,0E0,0E0,0E0,0E0,0E0,0E0,0E0,0E0,0E0,0E0,0E0,0E0,0E0,0E0,0E0,0E0,0E0,0E0,0E0,0E0,0E0,0E0,0E0,0E0,0E0,0E0,0E0,0E0,0E0,0E0,0E0,0E0,0E0,0E0,0E0,0E0,0E0,0E0,0E0,0E0],"parents":[2147483647,0,0,1,1,2,2,3,3,4,4,5,5,6,6,7,7,8,8,9,9,10,10,11,11,12,12,13,13,14,14,15,15,16,16,17,17,18,18,19,19,20,20,21,21,22,22,23,23,24,24,25,25,26,26,27,27,28,28,29,29,34,34,35,35,36,36,37,37,38,38,39,39,40,40,41,41,42,42,43,43,44,44,45,45,46,46,47,47,49,49,50,50,51,51,52,52,53,53,54,54,55,55,56,56,57,57,58,58,59,59,60,60],"right_children":[2,4,6,8,10,12,14,16,18,20,22,24,26,28,30,32,34,36,38,40,42,44,46,48,50,52,54,56,58,60,-1,-1,-1,-1,62,64,66,68,70,72,74,76,78,80,82,84,86,88,-1,90,92,94,96,98,100,102,104,106,108,110,112,-1,-1,-1,-1,-1,-1,-1,-1,-1,-1,-1,-1,-1,-1,-1,-1,-1,-1,-1,-1,-1,-1,-1,-1,-1,-1,-1,-1,-1,-1,-1,-1,-1,-1,-1,-1,-1,-1,-1,-1,-1,-1,-1,-1,-1,-1,-1,-1,-1,-1,-1,-1],"split_conditions":[3.0408347E-1,-8.653786E-1,1E0,1E0,1E0,8.888145E-1,8.888145E-1,9.233E-1,4.808453E-1,-2.8064758E-1,-2.8064758E-1,-8.802E-1,1.4735456E0,2.7975208E-1,1.4735456E0,2.6124337E0,2.9744E0,-4.844022E-1,1.7678419E0,-1.5485E0,-8.062E-1,5.210639E-1,3.6018938E-1,-4.53E-2,2.316E-1,-1.551E-1,2.6124E0,-6.452768E-1,9.2325044E-1,5.612826E-1,1.3691751E0,-1.17301E0,-8.7789863E-1,-1.219786E0,-1.4298E0,-8.621E-1,-1.4603E0,4.406E-1,2.4516E0,-9.268E-1,-9.708E-1,5.613E-1,-3.637E-1,-6.0505813E-1,-1.732E-1,-6.452768E-1,2.210247E0,-6.855E-1,-2.8097907E-1,-2.82E-1,1.0439E0,-1.0072E0,4.294E-1,1.1864E0,6.668E-1,6.607E-1,2.981E-1,1.0228E0,8.428E-1,-3.6374626E-1,1.4863114E0,-8.447571E-2,-6.6947573E-1,-1.0142726E0,-1.0948094E0,-9.1456115E-1,-9.902602E-1,-9.087007E-1,-8.331365E-1,-7.96814E-1,-9.80248E-2,-7.43588E-2,-5.7237965E-1,-8.290552E-1,-7.959575E-1,-5.105977E-1,-4.3289092E-1,-3.9512202E-1,-4.5677522E-1,-5.227264E-1,-4.537039E-1,-3.6191878E-1,-2.2106315E-1,-5.749527E-3,4.9599927E-2,1.3041551E-1,3.982967E-1,4.939689E-1,1.3373628E-1,-1.16585314E-1,-8.075423E-2,-2.843794E-1,1.9674474E-1,6.462391E-1,3.1577808E-1,2.7999845E-1,3.3914968E-1,6.4826214E-1,7.098267E-1,4.8939404E-1,-7.533181E-2,5.486124E-1,4.7815943E-1,6.9820845E-1,5.5539083E-1,5.9588355E-1,6.835633E-1,7.178216E-1,6.4096403E-1,1.0271714E0,1.0883158E0,1.1492237E0,1.2308606E0],"split_indices":[6,6,8,8,8,6,6,0,7,6,6,2,6,7,6,7,0,7,7,1,0,7,7,4,4,2,3,7,7,7,0,0,0,0,1,2,2,3,0,3,2,3,0,7,5,7,7,3,0,5,3,3,4,2,4,5,5,4,3,7,7,0,0,0,0,0,0,0,0,0,0,0,0,0,0,0,0,0,0,0,0,0,0,0,0,0,0,0,0,0,0,0,0,0,0,0,0,0,0,0,0,0,0,0,0,0,0,0,0,0,0,0,0],"split_type":[0,0,0,0,0,0,0,0,0,0,0,0,0,0,0,0,0,0,0,0,0,0,0,0,0,0,0,0,0,0,0,0,0,0,0,0,0,0,0,0,0,0,0,0,0,0,0,0,0,0,0,0,0,0,0,0,0,0,0,0,0,0,0,0,0,0,0,0,0,0,0,0,0,0,0,0,0,0,0,0,0,0,0,0,0,0,0,0,0,0,0,0,0,0,0,0,0,0,0,0,0,0,0,0,0,0,0,0,0,0,0,0,0],"sum_hessian":[6.522E4,3.2698E4,3.2522E4,1.1179E4,2.1519E4,1.6142E4,1.638E4,5.565E3,5.614E3,1.1124E4,1.0395E4,5.362E3,1.078E4,5.607E3,1.0773E4,4.688E3,8.77E2,3.832E3,1.782E3,5.65E3,5.474E3,5.341E3,5.054E3,1.5E1,5.347E3,5.53E3,5.25E3,3.399E3,2.208E3,5.446E3,5.327E3,4.671E3,1.7E1,8.75E2,2E0,1.751E3,2.081E3,1.529E3,2.53E2,1.7E1,5.633E3,9.12E2,4.562E3,3.655E3,1.686E3,3.208E3,1.846E3,1.3E1,2E0,5.285E3,6.2E1,9.16E2,4.614E3,5.233E3,1.7E1,1.476E3,1.923E3,1.159E3,1.049E3,3.895E3,1.551E3,1E0,1E0,1.303E3,4.48E2,5.73E2,1.508E3,1.183E3,3.46E2,2.5E2,3E0,2E0,1.5E1,3.392E3,2.241E3,5.54E2,3.58E2,6.95E2,3.867E3,1.398E3,2.257E3,1.548E3,1.38E2,1.3E3,1.908E3,1.761E3,8.5E1,4E0,9E0,9.79E2,4.306E3,5.3E1,9E0,1.3E1,9.03E2,4.318E3,2.96E2,4.861E3,3.72E2,1.4E1,3E0,4.39E2,1.037E3,1.03E2,1.82E3,8.62E2,2.97E2,6.13E2,4.36E2,1.936E3,1.959E3,1.177E3,3.74E2],"tree_param":{"num_deleted":"0","num_feature":"9","num_nodes":"113","size_leaf_vector":"1"}},{"base_weights":[1.0118297E-5,-1.5024463E0,1.5105971E0,-2.498118E0,-9.851084E-1,6.5870214E-1,2.3500228E0,-2.753329E0,-2.244689E0,-1.4868828E0,-4.480532E-1,-2.0555787E-1,1.0885664E0,1.3574775E0,2.8664365E0,-2.9211755E0,-2.739732E0,-2.334649E0,-2.0500386E0,-1.9026206E0,-1.0575092E0,-1.0254813E0,1.622473E-1,-2.1139452E-1,6.0271837E-2,6.771892E-1,1.5216724E0,1.2060364E0,1.4811178E0,2.5445263E0,3.1949987E0,-1.7023659E0,-2.9416022E0,-2.7203984E0,-2.8404708E0,-2.4304497E0,-2.2719445E0,-2.077878E0,-1.7840399E0,-1.6943506E0,-1.9129183E0,-1.0632828E0,-7.887126E-1,-1.1585752E0,-8.762017E-1,3.403619E-2,3.054236E-1,-1.8003882E-1,-2.9201064E-1,2.5774476E-1,-3.5185006E-1,6.3772166E-1,7.25593E-1,1.5192605E0,2.4480603E0,1.4443208E0,1.1705682E0,1.4391288E0,1.6848356E0,2.4333413E0,2.6790404E0,3.1184478E0,9.682366E-1,-6.6254044E-1,-1.5528636E-1,-8.890034E-1,-6.0075843E-1,-8.183997E-1,-6.9336194E-1,-5.01931E-1,-8.5633975E-1,-3.696556E-1,-7.305708E-1,-6.3673526E-1,-6.967521E-1,-6.3117903E-1,-5.535397E-1,-5.725295E-1,-3.89442E-1,-5.891922E-1,-4.5644155E-1,-5.7495993E-1,-4.107075E-1,-3.2543418E-1,-2.9390216E-1,-2.652924E-1,1.9446331E-1,1.4562279E-1,-3.4973133E-1,-2.7328518E-1,-1.3912185E-1,1.7294604E-2,-6.119807E-2,7.9354495E-2,2.0983472E-1,-1.580027E-1,-5.154853E-2,-5.9610028E-2,-1.2094689E-1,3.5554152E-2,3.3230132E-1,-2.6172766E-1,-4.8062563E-2,2.0049202E-1,1.5803835E-1,2.3732108E-1,2.0126395E-1,4.209857E-1,4.5988467E-1,-1.13184646E-1,8.2176244E-1,3.7999102E-1,5.6300837E-1,3.5392362E-1,1.160811E-1,4.2299515E-1,4.8441008E-1,5.4133946E-1,4.4562104E-1,6.9980365E-1,7.456548E-1,1.4373837E-1,8.050004E-1,9.3596023E-1,1.23864844E-1],"categories":[],"categories_nodes":[],"categories_segments":[],"categories_sizes":[],"default_left":[0,0,0,0,0,0,0,0,0,0,0,1,0,0,0,0,1,0,0,0,1,0,0,1,1,0,1,0,0,0,0,0,0,1,0,0,1,1,1,0,0,0,0,0,0,1,0,0,0,1,0,1,1,0,0,0,1,1,0,0,0,1,0,0,0,0,0,0,0,0,0,0,0,0,0,0,0,0,0,0,0,0,0,0,0,0,0,0,0,0,0,0,0,0,0,0,0,0,0,0,0,0,0,0,0,0,0,0,0,0,0,0,0,0,0,0,0,0,0,0,0,0,0,0,0],"id":3,"left_children":[1,3,5,7,9,11,13,15,17,19,21,23,25,27,29,31,33,35,37,39,41,43,45,47,49,51,53,55,57,59,61,63,65,67,69,71,73,75,77,79,81,83,85,87,89,91,93,95,97,99,101,103,105,107,109,111,113,115,117,119,121,123,-1,-1,-1,-1,-1,-1,-1,-1,-1,-1,-1,-1,-1,-1,-1,-1,-1,-1,-1,-1,-1,-1,-1,-1,-1,-1,-1,-1,-1,-1,-1,-1,-1,-1,-1,-1,-1,-1,-1,-1,-1,-1,-1,-1,-1,-1,-1,-1,-1,-1,-1,-1,-1,-1,-1,-1,-1,-1,-1,-1,-1,-1,-1],"loss_changes":[1.4802728E5,1.6840742E4,2.3255727E4,7.169219E2,5.7985547E3,5.997583E3,8.392422E3,4.6992188E0,9.353906E1,1.983875E3,3.6637654E3,8.33371E0,1.9198203E3,1.0321973E2,1.1314062E3,5.0007324E0,2.3320312E0,1.7501953E1,9.496582E0,8.880859E0,7.658203E0,1.05120605E2,9.278317E1,1.3213196E1,9.531106E0,1.0103516E1,8.012695E0,1.9657715E1,2.3947266E1,7.494531E1,3.1757812E0,4.2532654E0,2.1103516E0,7.2441406E0,8.440918E0,5.614258E0,1.2697266E1,5.868164E0,8.1604E0,9.8302E0,7.9472656E0,8.565918E0,1.6919434E1,3.393799E1,3.5724365E1,1.5007188E1,3.8307236E1,1.06703415E1,1.5144615E1,9.217271E0,3.6512566E0,1.0012695E1,8.34314E0,6.166992E0,1.0904556E1,2.2437744E1,1.5393311E1,1.0838379E1,9.749634E0,9.921875E0,2.190625E1,4.9189453E0,0E0,0E0,0E0,0E0,0E0,0E0,0E0,0E0,0E0,0E0,0E0,0E0,0E0,0E0,0E0,0E0,0E0,0E0,0E0,0E0,0E0,0E0,0E0,0E0,0E0,0E0,0E0,0E0,0E0,0E0,0E0,0E0,0E0,0E0,0E0,0E0,0E0,0E0,0E0,0E0,0E0,0E0,0E0,0E0,0E0,0E0,0E0,0E0,0E0,0E0,0E0,0E0,0E0,0E0,0E0,0E0,0E0,0E0,0E0,0E0,0E0,0E0,0E0],"parents":[2147483647,0,0,1,1,2,2,3,3,4,4,5,5,6,6,7,7,8,8,9,9,10,10,11,11,12,12,13,13,14,14,15,15,16,16,17,17,18,18,19,19,20,20,21,21,22,22,23,23,24,24,25,25,26,26,27,27,28,28,29,29,30,30,31,31,32,32,33,33,34,34,35,35,36,36,37,37,38,38,39,39,40,40,41,41,42,42,43,43,44,44,45,45,46,46,47,47,48,48,49,49,50,50,51,51,52,52,53,53,54,54,55,55,56,56,57,57,58,58,59,59,60,60,61,61],"right_children":[2,4,6,8,10,12,14,16,18,20,22,24,26,28,30,32,34,36,38,40,42,44,46,48,50,52,54,56,58,60,62,64,66,68,70,72,74,76,78,80,82,84,86,88,90,92,94,96,98,100,102,104,106,108,110,112,114,116,118,120,122,124,-1,-1,-1,-1,-1,-1,-1,-1,-1,-1,-1,-1,-1,-1,-1,-1,-1,-1,-1,-1,-1,-1,-1,-1,-1,-1,-1,-1,-1,-1,-1,-1,-1,-1,-1,-1,-1,-1,-1,-1,-1,-1,-1,-1,-1,-1,-1,-1,-1,-1,-1,-1,-1,-1,-1,-1,-1,-1,-1,-1,-1,-1,-1],"split_conditions":[3.0408347E-1,-8.653786E-1,1E0,1E0,1E0,8.888145E-1,8.888145E-1,-1.8047E0,4.808453E-1,-2.8064758E-1,-2.8064758E-1,1.921E-1,1.4735456E0,-1.2243439E-1,1.4735456E0,-1.9724921E0,9.233E-1,-6.0505813E-1,1.9287165E0,-1.5301E0,-2.035E-1,1.18877485E-1,7.865884E-2,8.1E-3,1.993E-1,1.5909614E-1,2.7733E0,5.876E-1,1.3656555E0,1.18877485E-1,-4.844022E-1,-2.1735854E0,2.1298099E0,-9.165E-1,-2.0529E0,-2.3747E0,-1.4784E0,1.0037E0,-9.89E-1,-1.9725E0,2.4113402E0,8.4281313E-1,1.5667E0,-1.1884E0,1.8482792E0,1.0841E0,1.7276233E0,-7.178E-1,1.591E-1,-4.2E-2,2.316E-1,5.519E-1,-4.53E-2,4.975E-1,-1.2486E0,4.794E-1,2.17E0,1.181E0,1.0623E0,-1.8E-3,5.338E-1,3.0146E0,9.682366E-1,-6.6254044E-1,-1.5528636E-1,-8.890034E-1,-6.0075843E-1,-8.183997E-1,-6.9336194E-1,-5.01931E-1,-8.5633975E-1,-3.696556E-1,-7.305708E-1,-6.3673526E-1,-6.967521E-1,-6.3117903E-1,-5.535397E-1,-5.725295E-1,-3.89442E-1,-5.891922E-1,-4.5644155E-1,-5.7495993E-1,-4.107075E-1,-3.2543418E-1,-2.9390216E-1,-2.652924E-1,1.9446331E-1,1.4562279E-1,-3.4973133E-1,-2.7328518E-1,-1.3912185E-1,1.7294604E-2,-6.119807E-2,7.9354495E-2,2.0983472E-1,-1.580027E-1,-5.154853E-2,-5.9610028E-2,-1.2094689E-1,3.5554152E-2,3.3230132E-1,-2.6172766E-1,-4.8062563E-2,2.0049202E-1,1.5803835E-1,2.3732108E-1,2.0126395E-1,4.209857E-1,4.5988467E-1,-1.13184646E-1,8.2176244E-1,3.7999102E-1,5.6300837E-1,3.5392362E-1,1.160811E-1,4.2299515E-1,4.8441008E-1,5.4133946E-1,4.4562104E-1,6.9980365E-1,7.456548E-1,1.4373837E-1,8.050004E-1,9.3596023E-1,1.23864844E-1],"split_indices":[6,6,8,8,8,6,6,5,7,6,6,1,6,7,6,7,0,7,7,3,1,7,7,2,3,7,0,4,7,7,7,7,7,2,3,3,2,3,2,3,7,7,0,5,7,3,7,4,0,3,1,2,1,2,3,5,0,4,1,3,2,0,0,0,0,0,0,0,0,0,0,0,0,0,0,0,0,0,0,0,0,0,0,0,0,0,0,0,0,0,0,0,0,0,0,0,0,0,0,0,0,0,0,0,0,0,0,0,0,0,0,0,0,0,0,0,0,0,0,0,0,0,0,0,0],"split_type":[0,0,0,0,0,0,0,0,0,0,0,0,0,0,0,0,0,0,0,0,0,0,0,0,0,0,0,0,0,0,0,0,0,0,0,0,0,0,0,0,0,0,0,0,0,0,0,0,0,0,0,0,0,0,0,0,0,0,0,0,0,0,0,0,0,0,0,0,0,0,0,0,0,0,0,0,0,0,0,0,0,0,0,0,0,0,0,0,0,0,0,0,0,0,0,0,0,0,0,0,0,0,0,0,0,0,0,0,0,0,0,0,0,0,0,0,0,0,0,0,0,0,0,0,0],"sum_hessian":[6.522E4,3.2698E4,3.2522E4,1.1179E4,2.1519E4,1.6142E4,1.638E4,5.565E3,5.614E3,1.1124E4,1.0395E4,5.362E3,1.078E4,5.607E3,1.0773E4,4.01E2,5.164E3,3.832E3,1.782E3,5.65E3,5.474E3,5.341E3,5.054E3,5.247E3,1.15E2,5.53E3,5.25E3,2.525E3,3.082E3,5.446E3,5.327E3,8E0,3.93E2,4.356E3,8.08E2,1.501E3,2.331E3,1.607E3,1.75E2,2.74E2,5.376E3,5.356E3,1.18E2,2.82E3,2.521E3,2.667E3,2.387E3,3.78E3,1.467E3,7.8E1,3.7E1,3.054E3,2.476E3,5.239E3,1.1E1,3.22E2,2.203E3,2.562E3,5.2E2,2.992E3,2.454E3,1.615E3,3.712E3,5E0,3E0,3.82E2,1.1E1,4.271E3,8.5E1,1.1E1,7.97E2,7E0,1.494E3,6E2,1.731E3,1.438E3,1.69E2,1.37E2,3.8E1,1.03E2,1.71E2,5.338E3,3.8E1,4.251E3,1.105E3,1.11E2,7E0,1.2E1,2.808E3,2.324E3,1.97E2,2.427E3,2.4E2,2.164E3,2.23E2,8.6E1,3.694E3,7.99E2,6.68E2,6.8E1,1E1,9E0,2.8E1,2.39E3,6.64E2,1.121E3,1.355E3,5.64E2,4.675E3,1E0,1E1,2.31E2,9.1E1,2.177E3,2.6E1,2.205E3,3.57E2,3.2E2,2E2,1.037E3,1.955E3,5E0,2.449E3,1.614E3,1E0],"tree_param":{"num_deleted":"0","num_feature":"9","num_nodes":"125","size_leaf_vector":"1"}},{"base_weights":[-4.00075E-5,-1.0521054E0,1.0577188E0,-1.7495552E0,-6.8971974E-1,4.612189E-1,1.6454874E0,-1.9282603E0,-1.5720981E0,-1.0410628E0,-3.13673E-1,-1.4395207E-1,7.6221794E-1,9.508238E-1,2.0069158E0,-1.8557053E0,-1.9530383E0,-1.6752743E0,-1.4793844E0,-1.332194E0,-7.403828E-1,-7.179524E-1,1.1362158E-1,-1.468876E-1,3.3463153E-1,4.7417653E-1,1.0654734E0,8.86565E-1,1.1106776E0,1.7816077E0,2.2368793E0,-1.8634964E0,2.1203586E-3,-1.9278092E0,-2.0663843E0,-2.0228453E0,-1.6645044E0,-1.5310963E0,-1.361054E0,-1.301427E0,-1.3947545E0,-9.159765E-1,-7.3344773E-1,-7.902772E-1,-5.607874E-1,5.2104916E-2,2.8569967E-1,-1.399324E-1,-3.7224838E-1,-4.4020978E-1,4.982238E-1,-2.8528282E-1,4.7643158E-1,1.0632486E0,1.8217461E0,7.179998E-1,9.1112286E-1,1.0188429E0,1.2251673E0,1.7328562E0,1.9720378E0,6.611302E-1,6.848872E-1,-5.696327E-1,-5.0776273E-1,-1.1941788E-1,3.6048004E-1,-6.499563E-1,-5.7226676E-1,-6.770446E-1,-5.9591115E-1,1.0442195E-1,-6.27771E-1,-5.0111634E-1,-3.2084045E-1,-4.6163914E-1,-1.7211536E-1,-3.989032E-1,-5.5031747E-1,-3.9753258E-1,-3.520669E-1,-2.866281E-1,-4.2352822E-1,-1.366068E-1,-3.0260307E-1,-3.000463E-1,-2.1857108E-1,-2.6819265E-1,-2.2192459E-1,-1.7673297E-1,-6.247483E-2,-7.8587845E-4,4.289657E-2,-2.0495312E-1,9.052584E-2,1.567243E-1,-4.270395E-2,-2.8889722E-1,-6.115876E-2,-7.637496E-2,2.4532871E-1,3.841293E-2,-2.6821208E-1,4.0806416E-1,1.421322E-1,3.1945258E-1,-3.3411887E-2,7.3398167E-1,1.7424984E-1,1.6027331E-1,2.957292E-1,3.666687E-1,2.696766E-1,3.139237E-1,6.4744316E-2,4.003675E-1,2.658911E-1,4.8523605E-1,5.309362E-1,5.793563E-1,6.5457696E-1],"categories":[],"categories_nodes":[],"categories_segments":[],"categories_sizes":[],"default_left":[0,0,0,0,0,0,0,1,0,0,0,1,0,0,0,1,0,0,0,0,0,0,0,1,0,0,0,0,1,0,0,1,0,0,0,0,1,1,1,0,0,0,0,1,1,0,0,0,0,0,0,0,0,0,0,0,0,1,0,0,0,0,0,0,0,0,0,0,0,0,0,0,0,0,0,0,0,0,0,0,0,0,0,0,0,0,0,0,0,0,0,0,0,0,0,0,0,0,0,0,0,0,0,0,0,0,0,0,0,0,0,0,0,0,0,0,0,0,0,0,0],"id":4,"left_children":[1,3,5,7,9,11,13,15,17,19,21,23,25,27,29,31,33,35,37,39,41,43,45,47,49,51,53,55,57,59,61,63,65,67,69,71,73,75,77,79,81,83,85,87,89,91,93,95,97,-1,99,101,103,105,107,109,111,113,115,117,119,-1,-1,-1,-1,-1,-1,-1,-1,-1,-1,-1,-1,-1,-1,-1,-1,-1,-1,-1,-1,-1,-1,-1,-1,-1,-1,-1,-1,-1,-1,-1,-1,-1,-1,-1,-1,-1,-1,-1,-1,-1,-1,-1,-1,-1,-1,-1,-1,-1,-1,-1,-1,-1,-1,-1,-1,-1,-1,-1,-1],"loss_changes":[7.258109E4,8.263328E3,1.140193E4,3.5151562E2,2.8429258E3,2.9406523E3,4.1108867E3,6.3828125E0,5.1234375E1,9.728672E2,1.7959528E3,7.5836105E0,9.412163E2,5.6620605E1,5.542422E2,2.080371E1,7.826172E0,6.552246E0,1.6065918E1,9.061523E0,5.9953613E0,6.0279053E1,5.3495674E1,8.303879E0,1.0459241E1,9.608398E0,6.897949E0,1.5925049E1,1.5616577E1,4.7152344E1,3.0996094E0,5.416992E0,3.8383627E0,1.2272461E1,6.762207E0,1.312677E1,7.2314453E0,1.4274902E1,1.1090942E1,9.961426E0,1.2465576E1,8.251434E0,6.1293945E0,1.8495361E1,1.6721619E1,1.85269E1,2.0907837E1,8.345818E0,1.5619835E1,0E0,7.665264E0,4.391934E0,1.230896E1,9.92041E0,9.434479E0,2.4763763E1,1.215625E1,1.9610718E1,2.5098877E1,1.5655273E1,5.2436523E0,0E0,0E0,0E0,0E0,0E0,0E0,0E0,0E0,0E0,0E0,0E0,0E0,0E0,0E0,0E0,0E0,0E0,0E0,0E0,0E0,0E0,0E0,0E0,0E0,0E0,0E0,0E0,0E0,0E0,0E0,0E0,0E0,0E0,0E0,0E0,0E0,0E0,0E0,0E0,0E0,0E0,0E0,0E0,0E0,0E0,0E0,0E0,0E0,0E0,0E0,0E0,0E0,0E0,0E0,0E0,0E0,0E0,0E0,0E0,0E0],"parents":[2147483647,0,0,1,1,2,2,3,3,4,4,5,5,6,6,7,7,8,8,9,9,10,10,11,11,12,12,13,13,14,14,15,15,16,16,17,17,18,18,19,19,20,20,21,21,22,22,23,23,24,24,25,25,26,26,27,27,28,28,29,29,30,30,31,31,32,32,33,33,34,34,35,35,36,36,37,37,38,38,39,39,40,40,41,41,42,42,43,43,44,44,45,45,46,46,47,47,48,48,50,50,51,51,52,52,53,53,54,54,55,55,56,56,57,57,58,58,59,59,60,60],"right_children":[2,4,6,8,10,12,14,16,18,20,22,24,26,28,30,32,34,36,38,40,42,44,46,48,50,52,54,56,58,60,62,64,66,68,70,72,74,76,78,80,82,84,86,88,90,92,94,96,98,-1,100,102,104,106,108,110,112,114,116,118,120,-1,-1,-1,-1,-1,-1,-1,-1,-1,-1,-1,-1,-1,-1,-1,-1,-1,-1,-1,-1,-1,-1,-1,-1,-1,-1,-1,-1,-1,-1,-1,-1,-1,-1,-1,-1,-1,-1,-1,-1,-1,-1,-1,-1,-1,-1,-1,-1,-1,-1,-1,-1,-1,-1,-1,-1,-1,-1,-1,-1],"split_conditions":[3.0408347E-1,-8.653786E-1,1E0,1E0,1E0,8.888145E-1,8.888145E-1,-1.0877E0,-8.221574E-2,-2.8064758E-1,-2.8064758E-1,2.3711E0,1.4735456E0,6.015012E-1,1.4735456E0,-8.364E-1,-1.1529E0,-2.213804E0,1.0036877E0,-5.72E-1,-1.6507E0,5.210639E-1,6.417199E-1,1.6874E0,-3.182E-1,-5.595E-1,2.773308E0,-1.3289938E0,7.151E-1,8.4281313E-1,2.3953342E-1,-1.4059E0,-1.4094E0,-8.464E-1,-5.648395E-1,-1.7312E0,2.2505E0,-5.358E-1,-5.595E-1,-7.714E-1,-1.3111E0,-2.3345E0,-1.9323E0,-1.6105E0,-1.37E-1,6.272E-1,-5.176E-1,-2.7366464E0,-9.2680734E-1,-4.4020978E-1,-4.409E-1,1.1646E0,-5.2E-1,2.6928709E0,5.481E-1,1.0232E0,2.437E-1,1.0228E0,1.3254E0,-8.4637004E-1,1.888498E0,6.611302E-1,6.848872E-1,-5.696327E-1,-5.0776273E-1,-1.1941788E-1,3.6048004E-1,-6.499563E-1,-5.7226676E-1,-6.770446E-1,-5.9591115E-1,1.0442195E-1,-6.27771E-1,-5.0111634E-1,-3.2084045E-1,-4.6163914E-1,-1.7211536E-1,-3.989032E-1,-5.5031747E-1,-3.9753258E-1,-3.520669E-1,-2.866281E-1,-4.2352822E-1,-1.366068E-1,-3.0260307E-1,-3.000463E-1,-2.1857108E-1,-2.6819265E-1,-2.2192459E-1,-1.7673297E-1,-6.247483E-2,-7.8587845E-4,4.289657E-2,-2.0495312E-1,9.052584E-2,1.567243E-1,-4.270395E-2,-2.8889722E-1,-6.115876E-2,-7.637496E-2,2.4532871E-1,3.841293E-2,-2.6821208E-1,4.0806416E-1,1.421322E-1,3.1945258E-1,-3.3411887E-2,7.3398167E-1,1.7424984E-1,1.6027331E-1,2.957292E-1,3.666687E-1,2.696766E-1,3.139237E-1,6.4744316E-2,4.003675E-1,2.658911E-1,4.8523605E-1,5.309362E-1,5.793563E-1,6.5457696E-1],"split_indices":[6,6,8,8,8,6,6,0,7,6,6,3,6,7,6,1,1,7,7,5,0,7,7,3,5,1,7,7,2,7,7,2,0,0,7,0,0,5,1,5,1,0,3,3,2,4,2,7,7,0,1,3,1,7,1,5,5,1,3,7,7,0,0,0,0,0,0,0,0,0,0,0,0,0,0,0,0,0,0,0,0,0,0,0,0,0,0,0,0,0,0,0,0,0,0,0,0,0,0,0,0,0,0,0,0,0,0,0,0,0,0,0,0,0,0,0,0,0,0,0,0],"split_type":[0,0,0,0,0,0,0,0,0,0,0,0,0,0,0,0,0,0,0,0,0,0,0,0,0,0,0,0,0,0,0,0,0,0,0,0,0,0,0,0,0,0,0,0,0,0,0,0,0,0,0,0,0,0,0,0,0,0,0,0,0,0,0,0,0,0,0,0,0,0,0,0,0,0,0,0,0,0,0,0,0,0,0,0,0,0,0,0,0,0,0,0,0,0,0,0,0,0,0,0,0,0,0,0,0,0,0,0,0,0,0,0,0,0,0,0,0,0,0,0,0],"sum_hessian":[6.522E4,3.2698E4,3.2522E4,1.1179E4,2.1519E4,1.6142E4,1.638E4,5.565E3,5.614E3,1.1124E4,1.0395E4,5.362E3,1.078E4,5.607E3,1.0773E4,1.436E3,4.129E3,2.649E3,2.965E3,5.65E3,5.474E3,5.341E3,5.054E3,5.33E3,3.2E1,5.53E3,5.25E3,4.004E3,1.603E3,5.446E3,5.327E3,1.43E3,6E0,3.392E3,7.37E2,7.4E1,2.575E3,2.055E3,9.1E2,3.802E3,1.848E3,2.03E2,5.271E3,3.655E3,1.686E3,3.724E3,1.33E3,5.172E3,1.58E2,2E0,3E1,1.6E1,5.514E3,5.237E3,1.3E1,5.13E2,3.491E3,8.95E2,7.08E2,4.344E3,1.102E3,3.128E3,2.199E3,1.177E3,2.53E2,5E0,1E0,2.57E2,3.135E3,2.1E2,5.27E2,2E0,7.2E1,2.548E3,2.7E1,2.038E3,1.7E1,8.57E2,5.3E1,3.2E3,6.02E2,7.1E1,1.777E3,3.5E1,1.68E2,9.1E1,5.18E3,1.192E3,2.463E3,1.56E3,1.26E2,2.325E3,1.399E3,2.1E1,1.309E3,1.8E1,5.154E3,3.4E1,1.24E2,9E0,2.1E1,1E1,6E0,1.5E1,5.499E3,5.23E3,7E0,8E0,5E0,3.06E2,2.07E2,1.28E2,3.363E3,8.65E2,3E1,5.33E2,1.75E2,1.064E3,3.28E3,9.31E2,1.71E2],"tree_param":{"num_deleted":"0","num_feature":"9","num_nodes":"121","size_leaf_vector":"1"}},{"base_weights":[-6.992617E-5,-7.3676366E-1,7.406105E-1,-1.2252486E0,-4.8295337E-1,3.2291573E-1,1.1521913E0,-1.3503807E0,-1.1009903E0,-7.2896135E-1,-2.196481E-1,-1.0086133E-1,5.336934E-1,6.659579E-1,1.4051749E0,-1.8684748E0,-1.3474238E0,-1.1361511E0,-9.62429E-1,-9.3279415E-1,-5.184429E-1,-5.027031E-1,7.952091E-2,6.364064E-2,-1.0858028E-1,3.319819E-1,7.460591E-1,5.7282937E-1,7.3001283E-1,1.2475389E0,1.5660678E0,-1.9280813E0,-2.9924227E-2,-1.4693259E0,-1.3376988E0,-4.435734E-1,-1.1391621E0,-5.810542E-1,-9.948663E-1,-9.274195E-1,-1.2698013E0,3.4817636E-1,-5.1977473E-1,-5.8586556E-1,-4.2596626E-1,4.1838646E-2,2.4104577E-1,-1.6680558E-1,4.13448E-1,-3.7026745E-1,-1.0072099E-1,3.2690188E-1,6.5750504E-1,1.1177604E0,7.425594E-1,6.758622E-1,5.261968E-1,7.1348405E-1,9.1037756E-1,1.2198995E0,1.4206142E0,1.5228468E0,4.7533712E-1,-5.9318644E-1,-8.9924246E-2,-9.130568E-2,-4.4500124E-1,-3.3895627E-1,-4.0307757E-1,-3.3780685E-1,8.376026E-2,-3.7031212E-1,-3.3479887E-1,-4.8917446E-1,-1.2995338E-1,-2.5165993E-1,-3.1478095E-1,-2.7955326E-1,-1.7997015E-1,-3.9947298E-1,9.884656E-2,2.2059423E-1,-2.0136115E-1,-2.514918E-1,-1.5475395E-1,1.7137313E-1,-1.7732431E-1,-1.3079408E-1,6.2125724E-2,1.5105774E-2,-1.1278737E-1,6.626457E-2,3.6714533E-1,-6.471587E-2,4.8707116E-1,-1.2781793E-1,1.9199316E-1,-8.564782E-2,-6.1475974E-1,-3.3857994E-2,5.515788E-3,9.31868E-2,1.2950674E-1,7.2682135E-2,3.4613332E-1,5.1922035E-1,2.1381521E-1,-2.4549699E-1,2.2353588E-1,6.5647304E-1,1.96653E-1,1.15577295E-1,1.8191116E-1,2.1731849E-1,1.07808314E-1,5.9868294E-1,2.6111615E-1,3.6356536E-1,4.741435E-1,3.7826934E-1,4.5770732E-1,4.5712936E-1,6.115437E-3],"categories":[],"categories_nodes":[],"categories_segments":[],"categories_sizes":[],"default_left":[0,0,0,0,0,0,0,0,0,0,0,0,0,0,0,1,0,0,0,1,0,0,0,0,0,0,0,0,1,0,0,1,0,0,0,0,0,0,1,1,0,0,0,0,0,1,0,0,0,1,1,1,0,0,0,0,0,1,0,1,1,1,0,0,0,0,0,0,0,0,0,0,0,0,0,0,0,0,0,0,0,0,0,0,0,0,0,0,0,0,0,0,0,0,0,0,0,0,0,0,0,0,0,0,0,0,0,0,0,0,0,0,0,0,0,0,0,0,0,0,0,0,0],"id":5,"left_children":[1,3,5,7,9,11,13,15,17,19,21,23,25,27,29,31,33,35,37,39,41,43,45,47,49,51,53,55,57,59,61,63,-1,65,67,69,71,73,75,77,79,81,83,85,87,89,91,93,95,97,99,101,103,105,107,109,111,113,115,117,119,121,-1,-1,-1,-1,-1,-1,-1,-1,-1,-1,-1,-1,-1,-1,-1,-1,-1,-1,-1,-1,-1,-1,-1,-1,-1,-1,-1,-1,-1,-1,-1,-1,-1,-1,-1,-1,-1,-1,-1,-1,-1,-1,-1,-1,-1,-1,-1,-1,-1,-1,-1,-1,-1,-1,-1,-1,-1,-1,-1,-1,-1],"loss_changes":[3.5588688E4,4.0535137E3,5.590824E3,1.7234766E2,1.3938022E3,1.4419907E3,2.0140781E3,6.0097656E0,2.6262695E1,4.7689648E2,8.803866E2,6.816742E0,4.6157373E2,3.30354E1,2.7130078E2,2.8650742E0,4.5996094E0,8.822266E0,1.35616455E1,9.058105E0,6.500244E0,3.3841064E1,3.075779E1,1.9496405E1,1.0499058E1,8.9313965E0,6.0007324E0,1.0647095E1,9.245117E0,2.4323242E1,1.8222656E0,1.6508255E0,0E0,6.0614624E0,4.7773438E0,1.067278E1,8.444336E0,1.3572081E1,8.048096E0,7.507324E0,8.935257E0,4.04531E0,6.408203E0,1.5792908E1,1.772638E1,1.4602999E1,1.8674244E1,1.3136099E1,1.8529274E1,2.0622288E1,7.195122E0,9.159424E0,1.7030182E1,1.0435677E1,2.1409912E1,2.0419678E1,1.7631073E1,1.1504883E1,1.0197769E1,1.16796875E1,1.05625E1,2.1970215E0,0E0,0E0,0E0,0E0,0E0,0E0,0E0,0E0,0E0,0E0,0E0,0E0,0E0,0E0,0E0,0E0,0E0,0E0,0E0,0E0,0E0,0E0,0E0,0E0,0E0,0E0,0E0,0E0,0E0,0E0,0E0,0E0,0E0,0E0,0E0,0E0,0E0,0E0,0E0,0E0,0E0,0E0,0E0,0E0,0E0,0E0,0E0,0E0,0E0,0E0,0E0,0E0,0E0,0E0,0E0,0E0,0E0,0E0,0E0,0E0,0E0],"parents":[2147483647,0,0,1,1,2,2,3,3,4,4,5,5,6,6,7,7,8,8,9,9,10,10,11,11,12,12,13,13,14,14,15,15,16,16,17,17,18,18,19,19,20,20,21,21,22,22,23,23,24,24,25,25,26,26,27,27,28,28,29,29,30,30,31,31,33,33,34,34,35,35,36,36,37,37,38,38,39,39,40,40,41,41,42,42,43,43,44,44,45,45,46,46,47,47,48,48,49,49,50,50,51,51,52,52,53,53,54,54,55,55,56,56,57,57,58,58,59,59,60,60,61,61],"right_children":[2,4,6,8,10,12,14,16,18,20,22,24,26,28,30,32,34,36,38,40,42,44,46,48,50,52,54,56,58,60,62,64,-1,66,68,70,72,74,76,78,80,82,84,86,88,90,92,94,96,98,100,102,104,106,108,110,112,114,116,118,120,122,-1,-1,-1,-1,-1,-1,-1,-1,-1,-1,-1,-1,-1,-1,-1,-1,-1,-1,-1,-1,-1,-1,-1,-1,-1,-1,-1,-1,-1,-1,-1,-1,-1,-1,-1,-1,-1,-1,-1,-1,-1,-1,-1,-1,-1,-1,-1,-1,-1,-1,-1,-1,-1,-1,-1,-1,-1,-1,-1,-1,-1],"split_conditions":[3.0408347E-1,-8.653786E-1,1E0,1E0,1E0,8.888145E-1,8.888145E-1,-2.5757718E0,8.4281313E-1,-2.8064758E-1,-2.8064758E-1,-1.6105E0,1.4735456E0,-2.4309033E-1,1.4735456E0,-9.551E-1,-1.8047E0,-2.4149E0,-1.2486E0,-5.2E-1,-2.978E0,-1.778451E-3,8.830318E-1,-1.8518E0,-1.3692E0,2.2504656E0,-2.3345E0,6.788E-1,1.2997E0,1.084125E0,-4.844022E-1,1.4059E0,-2.9924227E-2,-1.9724921E0,-1.7504E0,-1.1133E0,-1.0072446E0,-2.3747E0,-1.4966E0,2.0896E0,-5.991E-1,4.4062665E-1,-2.0127E0,-1.1884E0,2.451559E0,1.9287E0,2.6928709E0,2.1700284E0,-3.364E-1,3.344E-1,2.437E-1,9.233E-1,4.294E-1,2.712E-1,-2.254E0,8.06E-2,1.1414E0,1.0958E0,3.107E-1,1.9287E0,1.3392E0,3.0146E0,4.7533712E-1,-5.9318644E-1,-8.9924246E-2,-9.130568E-2,-4.4500124E-1,-3.3895627E-1,-4.0307757E-1,-3.3780685E-1,8.376026E-2,-3.7031212E-1,-3.3479887E-1,-4.8917446E-1,-1.2995338E-1,-2.5165993E-1,-3.1478095E-1,-2.7955326E-1,-1.7997015E-1,-3.9947298E-1,9.884656E-2,2.2059423E-1,-2.0136115E-1,-2.514918E-1,-1.5475395E-1,1.7137313E-1,-1.7732431E-1,-1.3079408E-1,6.2125724E-2,1.5105774E-2,-1.1278737E-1,6.626457E-2,3.6714533E-1,-6.471587E-2,4.8707116E-1,-1.2781793E-1,1.9199316E-1,-8.564782E-2,-6.1475974E-1,-3.3857994E-2,5.515788E-3,9.31868E-2,1.2950674E-1,7.2682135E-2,3.4613332E-1,5.1922035E-1,2.1381521E-1,-2.4549699E-1,2.2353588E-1,6.5647304E-1,1.96653E-1,1.15577295E-1,1.8191116E-1,2.1731849E-1,1.07808314E-1,5.9868294E-1,2.6111615E-1,3.6356536E-1,4.741435E-1,3.7826934E-1,4.5770732E-1,4.5712936E-1,6.115437E-3],"split_indices":[6,6,8,8,8,6,6,7,7,6,6,0,6,7,6,4,5,3,0,4,3,7,7,0,0,7,0,5,4,7,7,3,0,7,5,4,7,0,2,0,1,7,3,5,7,3,7,7,2,5,2,3,4,1,0,2,4,5,1,3,1,0,0,0,0,0,0,0,0,0,0,0,0,0,0,0,0,0,0,0,0,0,0,0,0,0,0,0,0,0,0,0,0,0,0,0,0,0,0,0,0,0,0,0,0,0,0,0,0,0,0,0,0,0,0,0,0,0,0,0,0,0,0],"split_type":[0,0,0,0,0,0,0,0,0,0,0,0,0,0,0,0,0,0,0,0,0,0,0,0,0,0,0,0,0,0,0,0,0,0,0,0,0,0,0,0,0,0,0,0,0,0,0,0,0,0,0,0,0,0,0,0,0,0,0,0,0,0,0,0,0,0,0,0,0,0,0,0,0,0,0,0,0,0,0,0,0,0,0,0,0,0,0,0,0,0,0,0,0,0,0,0,0,0,0,0,0,0,0,0,0,0,0,0,0,0,0,0,0,0,0,0,0,0,0,0,0,0,0],"sum_hessian":[6.522E4,3.2698E4,3.2522E4,1.1179E4,2.1519E4,1.6142E4,1.638E4,5.565E3,5.614E3,1.1124E4,1.0395E4,5.362E3,1.078E4,5.607E3,1.0773E4,2.8E1,5.537E3,4.472E3,1.142E3,5.65E3,5.474E3,5.341E3,5.054E3,2.4E2,5.122E3,5.53E3,5.25E3,2.289E3,3.318E3,5.446E3,5.327E3,2.7E1,1E0,3.98E2,5.139E3,2E1,4.452E3,9.1E1,1.051E3,5.565E3,8.5E1,8E0,5.466E3,2.56E3,2.781E3,4.099E3,9.55E2,1.45E2,9.5E1,1.48E2,4.974E3,5.447E3,8.3E1,4.6E1,5.204E3,7.09E2,1.58E3,3.044E3,2.74E2,4.703E3,7.43E2,1.615E3,3.712E3,2.6E1,1E0,5E0,3.93E2,1.47E2,4.992E3,1E1,1E1,8.61E2,3.591E3,1E1,8.1E1,2.76E2,7.75E2,5.489E3,7.6E1,8.2E1,3E0,6E0,2E0,6.4E1,5.402E3,1.1E1,2.549E3,2.738E3,4.3E1,4.018E3,8.1E1,9.37E2,1.8E1,1.42E2,3E0,2E1,7.5E1,1.42E2,6E0,4.514E3,4.6E2,4.718E3,7.29E2,4.6E1,3.7E1,1.7E1,2.9E1,8E0,5.196E3,8E0,7.01E2,5.75E2,1.005E3,2.952E3,9.2E1,8E0,2.66E2,4.605E3,9.8E1,3E2,4.43E2,1.614E3,1E0],"tree_param":{"num_deleted":"0","num_feature":"9","num_nodes":"123","size_leaf_vector":"1"}},{"base_weights":[-3.3010627E-5,-5.158881E-1,5.186137E-1,-8.5804397E-1,-3.3810845E-1,2.261101E-1,8.068358E-1,-9.456242E-1,-7.710752E-1,-5.1037586E-1,-1.537286E-1,-7.064786E-2,3.7371114E-1,4.6658683E-1,9.8386467E-1,-9.9671066E-1,-9.2679054E-1,-8.262131E-1,-7.1838903E-1,-6.5309024E-1,-3.6298054E-1,-3.5190597E-1,5.5730786E-2,5.807169E-1,-7.258338E-2,2.3250362E-1,5.2237713E-1,4.2951998E-1,5.588475E-1,8.735845E-1,1.0964233E0,-8.4431255E-1,-1.0455787E0,-1.1709541E0,-9.1884327E-1,-8.353807E-1,-5.303567E-1,-7.1029884E-1,-1.2748302E0,-1.111237E0,-6.5028334E-1,-2.656348E-1,-3.7388563E-1,-3.7219867E-1,-1.4791867E-1,-6.7047186E-2,8.973728E-2,-6.813924E-1,8.096891E-1,-7.836358E-1,-7.097101E-2,2.6458144E-1,1.8500821E-1,5.20554E-1,1.2749518E0,-2.1266258E-1,4.334449E-1,5.694841E-1,-3.5844377E-1,7.9690427E-1,9.1563976E-1,1.0849038E0,3.4626102E-1,-2.6836368E-1,-9.8247446E-2,-2.9979467E-1,-3.6082864E-1,-2.4448203E-1,-4.2159075E-1,-1.8722233E-1,-2.783936E-1,-2.4994005E-1,-7.628201E-1,-8.106649E-2,-3.3308107E-1,-2.1718876E-1,-1.0938306E-1,2.7220818E-1,-4.0621486E-1,-1.8626381E-1,-4.6086836E-1,3.9889607E-1,-1.9526175E-1,-1.2358156E-1,1.5527254E-2,-4.4985405E-1,-1.1138648E-1,-1.3423221E-1,-9.916612E-2,-1.10079326E-1,1.3860155E-2,-1.5131686E-2,-2.746859E-1,2.434147E-2,1.741761E-1,-4.1916993E-2,-2.647096E-1,4.0616295E-1,1.3698795E-1,-3.6148256E-1,2.645789E-1,-1.510111E-2,-3.7473716E-2,8.041911E-2,-1.5470113E-1,2.6167298E-2,6.860363E-2,1.5697244E-1,5.8803004E-3,5.808306E-1,-1.1363525E-2,-1.6008073E-1,3.5334522E-1,2.264071E-1,1.2700528E-1,-1.2186864E-1,1.7371768E-1,1.8865835E-2,-4.652234E-1,1.8832509E-1,2.6014578E-1,1.8153E-3,2.7578387E-1,3.035867E-1,3.268148E-1],"categories":[],"categories_nodes":[],"categories_segments":[],"categories_sizes":[],"default_left":[0,0,0,0,0,0,0,0,0,0,0,0,0,0,0,1,0,1,1,0,0,0,0,0,0,1,1,0,1,0,0,1,0,1,0,1,0,1,0,0,0,0,0,1,0,1,0,0,1,0,1,1,0,1,0,0,0,0,0,0,0,0,0,0,0,0,0,0,0,0,0,0,0,0,0,0,0,0,0,0,0,0,0,0,0,0,0,0,0,0,0,0,0,0,0,0,0,0,0,0,0,0,0,0,0,0,0,0,0,0,0,0,0,0,0,0,0,0,0,0,0,0,0,0,0],"id":6,"left_children":[1,3,5,7,9,11,13,15,17,19,21,23,25,27,29,31,33,35,37,39,41,43,45,47,49,51,53,55,57,59,61,63,65,67,69,71,73,75,77,79,81,83,85,87,89,91,93,95,97,99,101,103,105,107,109,111,113,115,117,119,121,123,-1,-1,-1,-1,-1,-1,-1,-1,-1,-1,-1,-1,-1,-1,-1,-1,-1,-1,-1,-1,-1,-1,-1,-1,-1,-1,-1,-1,-1,-1,-1,-1,-1,-1,-1,-1,-1,-1,-1,-1,-1,-1,-1,-1,-1,-1,-1,-1,-1,-1,-1,-1,-1,-1,-1,-1,-1,-1,-1,-1,-1,-1,-1],"loss_changes":[1.7449922E4,1.9887354E3,2.7417012E3,8.442578E1,6.834536E2,7.0711847E2,9.862324E2,4.4316406E0,1.5718018E1,2.3378198E2,4.3155875E2,6.803461E0,2.2620142E2,1.8938232E1,1.327793E2,1.0184082E1,6.8430176E0,6.9803467E0,1.205481E1,6.5446777E0,5.7127075E0,2.2057861E1,2.1111895E1,5.1755238E0,6.0757523E0,8.377808E0,6.5410156E0,1.0186768E1,1.5854187E1,1.683545E1,2.2944336E0,9.208923E0,6.949707E0,9.283661E0,1.0076172E1,8.060669E0,1.2522728E1,1.3150391E1,8.143478E0,5.9233017E0,7.4191895E0,2.5793118E1,1.38307495E1,1.5074402E1,2.063649E1,1.5414156E1,1.666321E1,2.0329535E-1,2.0716343E0,9.483229E0,5.9339275E0,9.10173E0,9.515579E0,7.0441895E0,1.0489067E1,1.1784998E1,1.2589539E1,1.5051941E1,9.642208E0,2.2472656E1,1.1618408E1,3.544922E-1,0E0,0E0,0E0,0E0,0E0,0E0,0E0,0E0,0E0,0E0,0E0,0E0,0E0,0E0,0E0,0E0,0E0,0E0,0E0,0E0,0E0,0E0,0E0,0E0,0E0,0E0,0E0,0E0,0E0,0E0,0E0,0E0,0E0,0E0,0E0,0E0,0E0,0E0,0E0,0E0,0E0,0E0,0E0,0E0,0E0,0E0,0E0,0E0,0E0,0E0,0E0,0E0,0E0,0E0,0E0,0E0,0E0,0E0,0E0,0E0,0E0,0E0,0E0],"parents":[2147483647,0,0,1,1,2,2,3,3,4,4,5,5,6,6,7,7,8,8,9,9,10,10,11,11,12,12,13,13,14,14,15,15,16,16,17,17,18,18,19,19,20,20,21,21,22,22,23,23,24,24,25,25,26,26,27,27,28,28,29,29,30,30,31,31,32,32,33,33,34,34,35,35,36,36,37,37,38,38,39,39,40,40,41,41,42,42,43,43,44,44,45,45,46,46,47,47,48,48,49,49,50,50,51,51,52,52,53,53,54,54,55,55,56,56,57,57,58,58,59,59,60,60,61,61],"right_children":[2,4,6,8,10,12,14,16,18,20,22,24,26,28,30,32,34,36,38,40,42,44,46,48,50,52,54,56,58,60,62,64,66,68,70,72,74,76,78,80,82,84,86,88,90,92,94,96,98,100,102,104,106,108,110,112,114,116,118,120,122,124,-1,-1,-1,-1,-1,-1,-1,-1,-1,-1,-1,-1,-1,-1,-1,-1,-1,-1,-1,-1,-1,-1,-1,-1,-1,-1,-1,-1,-1,-1,-1,-1,-1,-1,-1,-1,-1,-1,-1,-1,-1,-1,-1,-1,-1,-1,-1,-1,-1,-1,-1,-1,-1,-1,-1,-1,-1,-1,-1,-1,-1,-1,-1],"split_conditions":[3.0408347E-1,-8.653786E-1,1E0,1E0,1E0,8.888145E-1,8.888145E-1,-6.0505813E-1,-4.1997097E-2,-2.8064758E-1,-2.8064758E-1,-8.802E-1,1.4735456E0,6.015012E-1,1.4735456E0,-1.2083E0,-1.8116E0,-6.808E-1,-5.72E-1,-1.4694E0,-9.156E-1,1.4058741E0,-7.6593274E-1,-1.3289938E0,-9.156E-1,1.189E-1,2.7733E0,4.43E-2,1.6161E0,-3.6374626E-1,1.0036877E0,-1.329E0,1.4461E0,-7.659E-1,-1.4899E0,-4.013E-1,-1.1159E0,-7.533E-1,-4.804E-1,-2.4309033E-1,-1.6235E0,-3.182E-1,-9.708E-1,-1.2486E0,4.406E-1,2.0494E0,2.2906845E0,-9.268E-1,-6.855E-1,9.635E-1,2.62E-2,1.0232E0,4.808E-1,1.4765E0,-5.648395E-1,1.0051E0,2.437E-1,1.525E-1,1.1019E0,-2.029E-1,-2.7366E0,-1.5703057E0,3.4626102E-1,-2.6836368E-1,-9.8247446E-2,-2.9979467E-1,-3.6082864E-1,-2.4448203E-1,-4.2159075E-1,-1.8722233E-1,-2.783936E-1,-2.4994005E-1,-7.628201E-1,-8.106649E-2,-3.3308107E-1,-2.1718876E-1,-1.0938306E-1,2.7220818E-1,-4.0621486E-1,-1.8626381E-1,-4.6086836E-1,3.9889607E-1,-1.9526175E-1,-1.2358156E-1,1.5527254E-2,-4.4985405E-1,-1.1138648E-1,-1.3423221E-1,-9.916612E-2,-1.10079326E-1,1.3860155E-2,-1.5131686E-2,-2.746859E-1,2.434147E-2,1.741761E-1,-4.1916993E-2,-2.647096E-1,4.0616295E-1,1.3698795E-1,-3.6148256E-1,2.645789E-1,-1.510111E-2,-3.7473716E-2,8.041911E-2,-1.5470113E-1,2.6167298E-2,6.860363E-2,1.5697244E-1,5.8803004E-3,5.808306E-1,-1.1363525E-2,-1.6008073E-1,3.5334522E-1,2.264071E-1,1.2700528E-1,-1.2186864E-1,1.7371768E-1,1.8865835E-2,-4.652234E-1,1.8832509E-1,2.6014578E-1,1.8153E-3,2.7578387E-1,3.035867E-1,3.268148E-1],"split_indices":[6,6,8,8,8,6,6,7,7,6,6,2,6,7,6,0,0,5,2,4,1,7,7,7,1,0,0,5,4,7,7,0,3,3,0,4,2,2,1,7,5,5,2,3,3,3,7,0,3,0,2,5,0,2,7,2,5,1,1,3,0,7,0,0,0,0,0,0,0,0,0,0,0,0,0,0,0,0,0,0,0,0,0,0,0,0,0,0,0,0,0,0,0,0,0,0,0,0,0,0,0,0,0,0,0,0,0,0,0,0,0,0,0,0,0,0,0,0,0,0,0,0,0,0,0],"split_type":[0,0,0,0,0,0,0,0,0,0,0,0,0,0,0,0,0,0,0,0,0,0,0,0,0,0,0,0,0,0,0,0,0,0,0,0,0,0,0,0,0,0,0,0,0,0,0,0,0,0,0,0,0,0,0,0,0,0,0,0,0,0,0,0,0,0,0,0,0,0,0,0,0,0,0,0,0,0,0,0,0,0,0,0,0,0,0,0,0,0,0,0,0,0,0,0,0,0,0,0,0,0,0,0,0,0,0,0,0,0,0,0,0,0,0,0,0,0,0,0,0,0,0,0,0],"sum_hessian":[6.522E4,3.2698E4,3.2522E4,1.1179E4,2.1519E4,1.6142E4,1.638E4,5.565E3,5.614E3,1.1124E4,1.0395E4,5.362E3,1.078E4,5.607E3,1.0773E4,1.485E3,4.08E3,2.736E3,2.878E3,5.65E3,5.474E3,5.341E3,5.054E3,1.5E1,5.347E3,5.53E3,5.25E3,4.004E3,1.603E3,5.446E3,5.327E3,3.65E2,1.12E3,1.24E2,3.956E3,2.652E3,8.4E1,2.839E3,3.9E1,3.2E1,5.618E3,5.54E2,4.92E3,4.857E3,4.84E2,1.096E3,3.958E3,2E0,1.3E1,1.1E1,5.336E3,3.298E3,2.232E3,5.239E3,1.1E1,2.4E1,3.98E3,1.585E3,1.8E1,1.936E3,3.51E3,4.458E3,8.69E2,3.32E2,3.3E1,8.71E2,2.49E2,5.1E1,7.3E1,1.21E2,3.835E3,2.65E3,2E0,5.9E1,2.5E1,2.73E3,1.09E2,1E0,3.8E1,1.6E1,1.6E1,1E0,5.617E3,3.79E2,1.75E2,1E1,4.91E3,1.727E3,3.13E3,2.27E2,2.57E2,1.076E3,2E1,3.891E3,6.7E1,1E0,1E0,4E0,9E0,9E0,2E0,3.861E3,1.475E3,3.284E3,1.4E1,6.9E2,1.542E3,5.211E3,2.8E1,7E0,4E0,2E1,4E0,1.19E2,3.861E3,1.5E1,1.57E3,1.4E1,4E0,5.71E2,1.365E3,1.4E1,3.496E3,2.71E2,4.187E3],"tree_param":{"num_deleted":"0","num_feature":"9","num_nodes":"125","size_leaf_vector":"1"}},{"base_weights":[-6.7360095E-5,-3.6129236E-1,3.6311242E-1,-6.0099274E-1,-2.367472E-1,1.5832897E-1,5.6489843E-1,-6.6232485E-1,-5.400888E-1,-3.1737065E-1,-4.3096248E-2,-4.9437042E-2,2.616673E-1,3.2663777E-1,6.888636E-1,-9.2318976E-1,-6.5888244E-1,-5.6035435E-1,-4.6030924E-1,-3.823044E-1,-2.2031765E-1,-2.2230786E-1,3.329146E-2,-4.7160883E-2,-5.335564E-1,1.6275606E-1,3.65803E-1,3.0743808E-1,4.4687244E-1,6.116427E-1,7.6767987E-1,-1.068122E0,-1.3367382E-1,-4.1385022E-1,-6.633922E-1,-6.428627E-1,-5.3756434E-1,-4.0622437E-1,-6.011856E-1,-4.5719093E-1,-2.5983137E-1,-2.5979602E-1,2.4839412E-2,-4.9692786E-1,-1.6773005E-1,1.8480215E-2,2.8339562E-1,-7.29156E-2,-8.142842E-3,2.7806556E-1,-6.330283E-1,1.1386703E0,1.6131325E-1,3.551987E-1,5.0156873E-1,2.8252277E-1,4.079478E-1,8.0719006E-1,3.8495675E-1,5.820491E-1,6.855379E-1,7.534668E-1,7.919742E-1,-2.3271991E-1,-4.3866014E-1,3.5505596E-1,-1.5463936E-1,-1.3513306E-1,2.8316268E-1,-1.9555245E-1,-2.254921E-1,-2.8102475E-1,-1.7714083E-1,-7.967291E-2,-1.6669972E-1,-1.9488415E-2,-1.3143118E-1,-1.151202E-1,-2.2739524E-1,-2.1445478E-1,-1.3579603E-1,-8.174496E-2,6.249307E-3,-7.74358E-2,-4.434879E-1,-5.6549534E-2,2.9621687E-2,-1.26656E-1,-4.0231782E-1,-6.044888E-2,4.8034254E-2,-3.3159733E-3,3.362619E-2,6.2544465E-2,4.561917E-1,-1.1997857E-2,-4.5740537E-2,3.8730517E-2,-1.28865745E-2,-3.427365E-1,-5.626449E-2,6.812389E-2,4.9206266E-1,-1.6404389E-1,4.907956E-2,1.05979905E-1,4.4592813E-1,3.6825496E-1,1.2787493E-1,1.1527203E-2,8.759591E-2,1.3471022E-1,3.751328E-2,2.9651454E-1,-7.5119976E-3,9.881916E-2,1.9347398E-1,1.6979107E-1,2.1310066E-1,2.017781E-1,3.1827924E-1,1.2283917E-1,2.262177E-1,2.3812503E-1,1.9088805E-1],"categories":[],"categories_nodes":[],"categories_segments":[],"categories_sizes":[],"default_left":[0,0,0,0,1,0,0,0,0,0,0,1,0,1,0,1,0,0,1,0,0,0,0,0,0,0,1,0,0,0,0,1,0,1,1,0,0,0,1,0,1,0,0,1,1,1,0,1,0,0,0,1,0,1,0,0,1,0,0,1,0,0,1,0,0,0,0,0,0,0,0,0,0,0,0,0,0,0,0,0,0,0,0,0,0,0,0,0,0,0,0,0,0,0,0,0,0,0,0,0,0,0,0,0,0,0,0,0,0,0,0,0,0,0,0,0,0,0,0,0,0,0,0,0,0],"id":7,"left_children":[1,3,5,7,9,11,13,15,17,19,21,23,25,27,29,31,33,35,37,39,41,43,45,47,49,51,53,55,57,59,61,63,65,67,69,71,73,75,77,79,81,83,85,87,89,91,93,95,97,-1,99,101,103,105,107,109,111,113,115,117,119,121,123,-1,-1,-1,-1,-1,-1,-1,-1,-1,-1,-1,-1,-1,-1,-1,-1,-1,-1,-1,-1,-1,-1,-1,-1,-1,-1,-1,-1,-1,-1,-1,-1,-1,-1,-1,-1,-1,-1,-1,-1,-1,-1,-1,-1,-1,-1,-1,-1,-1,-1,-1,-1,-1,-1,-1,-1,-1,-1,-1,-1,-1,-1],"loss_changes":[8.556449E3,9.760381E2,1.3438398E3,4.1403564E1,3.3597412E2,3.4660632E2,4.8360498E2,4.3901367E0,8.8203125E0,9.566846E1,8.662128E1,5.884506E0,1.1098688E2,1.2808533E1,6.5104004E1,7.8670616E0,5.7998047E0,8.065308E0,8.46463E0,8.336096E1,5.897696E1,2.8259262E1,1.643098E1,5.364559E0,4.2185683E0,7.604294E0,7.381653E0,1.2002686E1,1.6867447E1,1.1512573E1,1.2429199E0,5.663948E0,6.64477E0,5.492895E0,5.010254E0,1.4274841E1,1.7138428E1,8.990494E0,1.0449402E1,6.2784424E0,1.2277542E1,1.0340393E1,1.3356284E1,1.9181435E1,1.7511883E1,1.1584665E1,2.2669327E1,8.416922E0,1.0153621E1,0E0,5.23228E0,3.2851257E0,9.028702E0,1.0129456E1,2.0144936E1,8.954071E0,1.1090729E1,1.691359E1,9.305542E0,7.6342773E0,6.82782E0,3.8012695E-1,3.3325195E-2,0E0,0E0,0E0,0E0,0E0,0E0,0E0,0E0,0E0,0E0,0E0,0E0,0E0,0E0,0E0,0E0,0E0,0E0,0E0,0E0,0E0,0E0,0E0,0E0,0E0,0E0,0E0,0E0,0E0,0E0,0E0,0E0,0E0,0E0,0E0,0E0,0E0,0E0,0E0,0E0,0E0,0E0,0E0,0E0,0E0,0E0,0E0,0E0,0E0,0E0,0E0,0E0,0E0,0E0,0E0,0E0,0E0,0E0,0E0,0E0,0E0,0E0],"parents":[2147483647,0,0,1,1,2,2,3,3,4,4,5,5,6,6,7,7,8,8,9,9,10,10,11,11,12,12,13,13,14,14,15,15,16,16,17,17,18,18,19,19,20,20,21,21,22,22,23,23,24,24,25,25,26,26,27,27,28,28,29,29,30,30,31,31,32,32,33,33,34,34,35,35,36,36,37,37,38,38,39,39,40,40,41,41,42,42,43,43,44,44,45,45,46,46,47,47,48,48,50,50,51,51,52,52,53,53,54,54,55,55,56,56,57,57,58,58,59,59,60,60,61,61,62,62],"right_children":[2,4,6,8,10,12,14,16,18,20,22,24,26,28,30,32,34,36,38,40,42,44,46,48,50,52,54,56,58,60,62,64,66,68,70,72,74,76,78,80,82,84,86,88,90,92,94,96,98,-1,100,102,104,106,108,110,112,114,116,118,120,122,124,-1,-1,-1,-1,-1,-1,-1,-1,-1,-1,-1,-1,-1,-1,-1,-1,-1,-1,-1,-1,-1,-1,-1,-1,-1,-1,-1,-1,-1,-1,-1,-1,-1,-1,-1,-1,-1,-1,-1,-1,-1,-1,-1,-1,-1,-1,-1,-1,-1,-1,-1,-1,-1,-1,-1,-1,-1,-1,-1,-1,-1,-1],"split_conditions":[3.0408347E-1,-8.653786E-1,1E0,1E0,-2.826E-1,8.888145E-1,8.888145E-1,-2.213804E0,8.4281313E-1,-2.8064758E-1,-2.8064758E-1,3.107E-1,1.4735456E0,1.181E0,1.4735456E0,7.624E-1,-1.8518362E0,-1.3334E0,-8.364E-1,1E0,1E0,-9.6702594E-1,1.5667487E0,2.7975208E-1,-6.386E-1,-2.8573E0,1.1864E0,8.830318E-1,8.782E-1,5.612826E-1,3.6018938E-1,-2.833E-1,8.026E-1,1.8081E0,-1.1133E0,-1.1279006E0,-1.279E0,-1.2486E0,-1.1529E0,-2.1333668E0,1.5667E0,2.8135269E0,-6.0505813E-1,-1.37E-1,-1.732E-1,2.437E-1,4.975E-1,8.1E-3,4.808453E-1,2.7806556E-1,-1.007E-1,7.34E-2,-2.5356E0,1.5671E0,4.69E-1,-1.7312E0,8.428E-1,8.4281313E-1,1.0051E0,1.8535E0,2.4113402E0,-2.9779582E0,2.2491E0,-2.3271991E-1,-4.3866014E-1,3.5505596E-1,-1.5463936E-1,-1.3513306E-1,2.8316268E-1,-1.9555245E-1,-2.254921E-1,-2.8102475E-1,-1.7714083E-1,-7.967291E-2,-1.6669972E-1,-1.9488415E-2,-1.3143118E-1,-1.151202E-1,-2.2739524E-1,-2.1445478E-1,-1.3579603E-1,-8.174496E-2,6.249307E-3,-7.74358E-2,-4.434879E-1,-5.6549534E-2,2.9621687E-2,-1.26656E-1,-4.0231782E-1,-6.044888E-2,4.8034254E-2,-3.3159733E-3,3.362619E-2,6.2544465E-2,4.561917E-1,-1.1997857E-2,-4.5740537E-2,3.8730517E-2,-1.28865745E-2,-3.427365E-1,-5.626449E-2,6.812389E-2,4.9206266E-1,-1.6404389E-1,4.907956E-2,1.05979905E-1,4.4592813E-1,3.6825496E-1,1.2787493E-1,1.1527203E-2,8.759591E-2,1.3471022E-1,3.751328E-2,2.9651454E-1,-7.5119976E-3,9.881916E-2,1.9347398E-1,1.6979107E-1,2.1310066E-1,2.017781E-1,3.1827924E-1,1.2283917E-1,2.262177E-1,2.3812503E-1,1.9088805E-1],"split_indices":[6,6,8,8,1,6,6,7,7,6,6,4,6,4,6,3,7,5,1,8,8,7,7,7,1,0,2,7,5,7,7,3,3,3,1,7,5,0,4,7,3,7,7,5,5,5,2,2,7,0,2,4,0,5,1,0,3,7,2,4,7,7,4,0,0,0,0,0,0,0,0,0,0,0,0,0,0,0,0,0,0,0,0,0,0,0,0,0,0,0,0,0,0,0,0,0,0,0,0,0,0,0,0,0,0,0,0,0,0,0,0,0,0,0,0,0,0,0,0,0,0,0,0,0,0],"split_type":[0,0,0,0,0,0,0,0,0,0,0,0,0,0,0,0,0,0,0,0,0,0,0,0,0,0,0,0,0,0,0,0,0,0,0,0,0,0,0,0,0,0,0,0,0,0,0,0,0,0,0,0,0,0,0,0,0,0,0,0,0,0,0,0,0,0,0,0,0,0,0,0,0,0,0,0,0,0,0,0,0,0,0,0,0,0,0,0,0,0,0,0,0,0,0,0,0,0,0,0,0,0,0,0,0,0,0,0,0,0,0,0,0,0,0,0,0,0,0,0,0,0,0,0,0],"sum_hessian":[6.522E4,3.2698E4,3.2522E4,1.1179E4,2.1519E4,1.6142E4,1.638E4,5.565E3,5.614E3,1.5193E4,6.326E3,5.362E3,1.078E4,5.607E3,1.0773E4,6.9E1,5.496E3,4.472E3,1.142E3,9.101E3,6.092E3,1.89E3,4.436E3,5.338E3,2.4E1,5.53E3,5.25E3,4.838E3,7.69E2,5.446E3,5.327E3,5.8E1,1.1E1,1.01E2,5.395E3,9.62E2,3.51E3,8.28E2,3.14E2,5.646E3,3.455E3,5.247E3,8.45E2,3.12E2,1.578E3,4.189E3,2.47E2,3.215E3,2.123E3,1E0,2.3E1,7E0,5.523E3,4.873E3,3.77E2,3.88E3,9.58E2,1.11E2,6.58E2,3.895E3,1.551E3,3.381E3,1.946E3,3.5E1,2.3E1,2E0,9E0,9.9E1,2E0,4.778E3,6.17E2,1.43E2,8.19E2,2.2E2,3.29E3,7.1E1,7.57E2,1.33E2,1.81E2,9.5E1,5.551E3,3.306E3,1.49E2,5.241E3,6E0,2.17E2,6.28E2,2.88E2,2.4E1,1.431E3,1.47E2,3.185E3,1.004E3,2.34E2,1.3E1,2.275E3,9.4E2,4.29E2,1.694E3,1E1,1.3E1,3E0,4E0,1.7E1,5.506E3,4.866E3,7E0,3.4E1,3.43E2,1.45E2,3.735E3,8.36E2,1.22E2,9.1E1,2E1,5.44E2,1.14E2,3.466E3,4.29E2,1.502E3,4.9E1,7E0,3.374E3,1.92E3,2.6E1],"tree_param":{"num_deleted":"0","num_feature":"9","num_nodes":"125","size_leaf_vector":"1"}},{"base_weights":[-3.2289838E-5,-2.5299358E-1,2.542979E-1,-4.2086864E-1,-1.6576791E-1,1.1091324E-1,3.955838E-1,-4.6376115E-1,-3.7827548E-1,-2.5103974E-1,-7.450059E-2,-3.4634236E-2,1.8330543E-1,2.2879846E-1,4.8236093E-1,-4.482373E-1,-5.126249E-1,-9.909899E-1,-3.7546808E-1,-3.2020038E-1,-1.7961001E-1,-1.7251915E-1,2.9097753E-2,-4.337897E-2,8.5936174E-2,1.14009395E-1,2.5626165E-1,2.682907E-1,1.8423432E-1,4.2831612E-1,5.3752226E-1,-4.54238E-1,-2.8417826E-1,-6.82249E-1,-4.8678395E-1,1.0329189E-1,-1.2043432E0,2.828945E-1,-3.782384E-1,-2.9552364E-1,-3.6899394E-1,-1.7841363E-1,-1.0886741E0,-2.5662145E-1,-1.4264297E-1,-4.7547176E-1,3.689505E-2,-4.5029532E-2,6.465932E-1,1.3166395E-1,-4.658663E-1,1.1980457E-1,-9.905868E-2,2.5342536E-1,7.2567797E-1,2.138692E-1,3.8843393E-1,-1.6071488E-1,2.1031517E-1,8.8824433E-1,4.2466363E-1,5.308316E-1,1.7135882E-1,-2.5743607E-1,-1.354611E-1,-9.292574E-2,5.366293E-1,-2.617706E-1,-1.544395E-1,-1.2216279E-1,-1.6913143E-1,1.6180444E-1,-4.216776E-2,-3.8596973E-1,6.601575E-2,2.2533865E-1,-1.7428643E-1,-1.10634714E-1,-1.5649655E-1,-9.4100684E-2,-3.487563E-2,-2.9711005E-1,-1.0631028E-1,-1.4557764E-1,-5.256204E-2,-3.9972857E-1,5.607784E-2,2.8813781E-2,-8.524116E-2,-4.7673587E-2,1.06259E-2,-4.371698E-2,-2.8038803E-1,1.1610256E-1,8.737903E-3,-7.605573E-3,-3.4305297E-2,3.7161693E-1,-2.5420415E-1,4.363784E-2,-4.344368E-1,1.8428014E-1,-2.565485E-1,5.081178E-2,2.7786504E-2,7.430315E-3,-2.303164E-1,7.782572E-2,2.7009556E-3,3.0328814E-2,4.1554773E-1,1.09204106E-1,4.949329E-2,-2.3075809E-1,1.2057788E-1,1.1361002E-1,-1.0219687E-1,1.9414213E-2,8.070052E-2,1.5244566E-1,3.9648333E-1,7.7014625E-2,1.3032344E-1,1.5006207E-1,1.6101661E-1],"categories":[],"categories_nodes":[],"categories_segments":[],"categories_sizes":[],"default_left":[0,0,0,0,0,0,0,1,0,0,0,1,0,0,0,1,0,0,0,0,1,0,0,1,1,1,1,0,0,0,0,0,0,0,1,0,0,1,1,0,0,0,0,0,1,1,0,1,1,0,0,0,0,1,0,0,0,0,0,0,0,0,0,0,0,0,0,0,0,0,0,0,0,0,0,0,0,0,0,0,0,0,0,0,0,0,0,0,0,0,0,0,0,0,0,0,0,0,0,0,0,0,0,0,0,0,0,0,0,0,0,0,0,0,0,0,0,0,0,0,0,0,0,0,0],"id":8,"left_children":[1,3,5,7,9,11,13,15,17,19,21,23,25,27,29,31,33,35,37,39,41,43,45,47,49,51,53,55,57,59,61,63,65,67,69,71,73,75,77,79,81,83,85,87,89,91,93,95,97,99,101,103,105,107,109,111,113,115,117,119,121,123,-1,-1,-1,-1,-1,-1,-1,-1,-1,-1,-1,-1,-1,-1,-1,-1,-1,-1,-1,-1,-1,-1,-1,-1,-1,-1,-1,-1,-1,-1,-1,-1,-1,-1,-1,-1,-1,-1,-1,-1,-1,-1,-1,-1,-1,-1,-1,-1,-1,-1,-1,-1,-1,-1,-1,-1,-1,-1,-1,-1,-1,-1,-1],"loss_changes":[4.1961025E3,4.787422E2,6.588147E2,2.0249512E1,1.6746143E2,1.7009708E2,2.3697437E2,3.9923096E0,9.286377E0,5.4901367E1,1.0557183E2,5.658242E0,5.4474945E1,9.8203125E0,3.1888916E1,4.0371094E0,5.5195312E0,5.961117E0,1.0304443E1,6.6951294E0,5.7603607E0,1.3385986E1,1.9905327E1,5.724452E0,9.220808E0,6.841362E0,6.807251E0,1.9342438E1,2.3766747E1,8.773132E0,8.970947E-1,4.064453E0,8.612184E0,5.096039E0,6.8891296E0,6.074742E-1,2.7425747E0,1.0143984E1,7.3587036E0,1.2188049E1,1.6862518E1,5.296463E0,2.4255972E0,1.36030655E1,1.1431E1,1.1522039E1,1.3531258E1,6.8038673E0,1.16649065E1,7.533407E0,1.2299042E1,7.2400665E0,1.2190332E1,7.6463623E0,1.262886E1,1.4966568E1,1.475679E1,1.8182734E1,2.0943054E1,6.246628E0,8.738892E0,5.3601074E-1,0E0,0E0,0E0,0E0,0E0,0E0,0E0,0E0,0E0,0E0,0E0,0E0,0E0,0E0,0E0,0E0,0E0,0E0,0E0,0E0,0E0,0E0,0E0,0E0,0E0,0E0,0E0,0E0,0E0,0E0,0E0,0E0,0E0,0E0,0E0,0E0,0E0,0E0,0E0,0E0,0E0,0E0,0E0,0E0,0E0,0E0,0E0,0E0,0E0,0E0,0E0,0E0,0E0,0E0,0E0,0E0,0E0,0E0,0E0,0E0,0E0,0E0,0E0],"parents":[2147483647,0,0,1,1,2,2,3,3,4,4,5,5,6,6,7,7,8,8,9,9,10,10,11,11,12,12,13,13,14,14,15,15,16,16,17,17,18,18,19,19,20,20,21,21,22,22,23,23,24,24,25,25,26,26,27,27,28,28,29,29,30,30,31,31,32,32,33,33,34,34,35,35,36,36,37,37,38,38,39,39,40,40,41,41,42,42,43,43,44,44,45,45,46,46,47,47,48,48,49,49,50,50,51,51,52,52,53,53,54,54,55,55,56,56,57,57,58,58,59,59,60,60,61,61],"right_children":[2,4,6,8,10,12,14,16,18,20,22,24,26,28,30,32,34,36,38,40,42,44,46,48,50,52,54,56,58,60,62,64,66,68,70,72,74,76,78,80,82,84,86,88,90,92,94,96,98,100,102,104,106,108,110,112,114,116,118,120,122,124,-1,-1,-1,-1,-1,-1,-1,-1,-1,-1,-1,-1,-1,-1,-1,-1,-1,-1,-1,-1,-1,-1,-1,-1,-1,-1,-1,-1,-1,-1,-1,-1,-1,-1,-1,-1,-1,-1,-1,-1,-1,-1,-1,-1,-1,-1,-1,-1,-1,-1,-1,-1,-1,-1,-1,-1,-1,-1,-1,-1,-1,-1,-1],"split_conditions":[3.0408347E-1,-8.653786E-1,1E0,1E0,1E0,8.888145E-1,8.888145E-1,6.015E-1,-2.5758E0,-2.8064758E-1,-2.8064758E-1,3.38E-2,1.4735456E0,9.832E-1,1.4735456E0,-1.0252E0,-1.0876819E0,-6.855E-1,-2.2942E0,4.4062665E-1,2.619E-1,-6.0505813E-1,-5.176E-1,5.157E-1,3.344E-1,8.782E-1,1.1019E0,6.969E-1,-1.0072E0,7.151E-1,1.0036877E0,-2.5757718E0,2.6527E0,1.0037E0,-2.029E-1,-2.978E0,-8.983E-1,-1.627E-1,-5.595E-1,2.7975208E-1,-1.4603E0,-1.134E0,4.25E-1,-7.178E-1,-1.913E-1,1.591E-1,-2.431E-1,2.62E-2,3.2E-1,2.4516E0,-8.48E-2,3.38E-2,1.0439E0,9.041E-1,2.395E-1,-8.866E-1,8.06E-2,7.063E-1,-5.648395E-1,6.607E-1,9.87E-1,-1.0474633E0,1.7135882E-1,-2.5743607E-1,-1.354611E-1,-9.292574E-2,5.366293E-1,-2.617706E-1,-1.544395E-1,-1.2216279E-1,-1.6913143E-1,1.6180444E-1,-4.216776E-2,-3.8596973E-1,6.601575E-2,2.2533865E-1,-1.7428643E-1,-1.10634714E-1,-1.5649655E-1,-9.4100684E-2,-3.487563E-2,-2.9711005E-1,-1.0631028E-1,-1.4557764E-1,-5.256204E-2,-3.9972857E-1,5.607784E-2,2.8813781E-2,-8.524116E-2,-4.7673587E-2,1.06259E-2,-4.371698E-2,-2.8038803E-1,1.1610256E-1,8.737903E-3,-7.605573E-3,-3.4305297E-2,3.7161693E-1,-2.5420415E-1,4.363784E-2,-4.344368E-1,1.8428014E-1,-2.565485E-1,5.081178E-2,2.7786504E-2,7.430315E-3,-2.303164E-1,7.782572E-2,2.7009556E-3,3.0328814E-2,4.1554773E-1,1.09204106E-1,4.949329E-2,-2.3075809E-1,1.2057788E-1,1.1361002E-1,-1.0219687E-1,1.9414213E-2,8.070052E-2,1.5244566E-1,3.9648333E-1,7.7014625E-2,1.3032344E-1,1.5006207E-1,1.6101661E-1],"split_indices":[6,6,8,8,8,6,6,0,0,6,6,1,6,1,6,5,7,3,0,7,5,7,2,2,5,2,1,2,0,5,7,7,3,0,3,0,2,3,1,7,5,5,5,1,5,3,1,2,3,0,4,4,0,1,0,0,5,4,7,5,5,7,0,0,0,0,0,0,0,0,0,0,0,0,0,0,0,0,0,0,0,0,0,0,0,0,0,0,0,0,0,0,0,0,0,0,0,0,0,0,0,0,0,0,0,0,0,0,0,0,0,0,0,0,0,0,0,0,0,0,0,0,0,0,0],"split_type":[0,0,0,0,0,0,0,0,0,0,0,0,0,0,0,0,0,0,0,0,0,0,0,0,0,0,0,0,0,0,0,0,0,0,0,0,0,0,0,0,0,0,0,0,0,0,0,0,0,0,0,0,0,0,0,0,0,0,0,0,0,0,0,0,0,0,0,0,0,0,0,0,0,0,0,0,0,0,0,0,0,0,0,0,0,0,0,0,0,0,0,0,0,0,0,0,0,0,0,0,0,0,0,0,0,0,0,0,0,0,0,0,0,0,0,0,0,0,0,0,0,0,0,0,0],"sum_hessian":[6.522E4,3.2698E4,3.2522E4,1.1179E4,2.1519E4,1.6142E4,1.638E4,5.565E3,5.614E3,1.1124E4,1.0395E4,5.362E3,1.078E4,5.607E3,1.0773E4,4.231E3,1.334E3,2.4E1,5.59E3,5.65E3,5.474E3,5.341E3,5.054E3,5E3,3.62E2,5.53E3,5.25E3,2.97E3,2.637E3,5.446E3,5.327E3,4.08E3,1.51E2,1.73E2,1.161E3,4E0,2E1,2.3E1,5.567E3,3.757E3,1.893E3,5.468E3,6E0,1.398E3,3.943E3,7.6E1,4.978E3,4.989E3,1.1E1,3.35E2,2.7E1,5.384E3,1.46E2,5.22E3,3E1,2.046E3,9.24E2,1.85E2,2.452E3,4.1E1,5.405E3,4.458E3,8.69E2,2.5E1,4.055E3,1.5E2,1E0,7.9E1,9.4E1,5.74E2,5.87E2,1E0,3E0,1.9E1,1E0,1.5E1,8E0,5.226E3,3.41E2,3.411E3,3.46E2,4.2E1,1.851E3,5.5E1,5.413E3,5E0,1E0,1.01E2,1.297E3,3.613E3,3.3E2,4.5E1,3.1E1,1.07E2,4.871E3,3.887E3,1.102E3,8E0,3E0,3.33E2,2E0,7E0,2E1,1.905E3,3.479E3,1.24E2,2.2E1,5.095E3,1.25E2,1.6E1,1.4E1,5.01E2,1.545E3,1E1,9.14E2,4.6E1,1.39E2,7.05E2,1.747E3,2.3E1,1.8E1,2.98E2,5.107E3,7.33E2,3.725E3],"tree_param":{"num_deleted":"0","num_feature":"9","num_nodes":"125","size_leaf_vector":"1"}},{"base_weights":[-3.8565195E-5,-1.7717004E-1,1.7805146E-1,-2.94704E-1,-1.1610095E-1,1.0212893E-1,3.133459E-1,-3.2475078E-1,-2.6486692E-1,-1.5693149E-1,-1.6115882E-2,1.983062E-2,1.5383478E-1,2.583861E-1,3.511793E-1,-3.2744688E-1,-5.362595E-2,-2.726361E-1,-1.2582466E-1,-2.3698445E-1,-1.3618144E-1,-3.4542568E-2,9.829289E-2,-2.910889E-2,7.917476E-2,1.149424E-1,1.9436657E-1,2.3995495E-1,4.301429E-1,3.0472994E-1,3.761172E-1,-3.1840366E-1,-4.033416E-1,2.2873016E-1,-7.148388E-1,-2.8726387E-1,-1.7510426E-1,8.043163E-1,-1.7778392E-1,-2.5660485E-1,3.2848984E-2,-1.3927016E-1,2.8350496E-1,-4.820853E-2,1.4994894E-1,8.9019066E-1,7.272201E-2,-5.435132E-2,3.9019268E-2,3.6976564E-1,6.4277776E-2,5.7387084E-4,1.3512982E-1,1.4244395E-1,3.215629E-1,8.9767426E-2,2.5840172E-1,4.9140224E-1,1.1826003E-1,-1.9775015E-1,3.1822738E-1,4.8826787E-1,3.62382E-1,-1.0660534E-1,-8.7781124E-2,-1.0703459E-1,-2.6157787E-1,-1.1245628E-1,1.8176249E-1,-5.2824575E-2,-3.5225075E-1,9.2013106E-2,-8.701247E-2,-5.8869205E-2,1.19933486E-1,-1.4720933E-2,6.704414E-1,-1.1538423E-1,9.52644E-3,-6.232771E-2,-1.1495078E-1,5.1062185E-2,-1.04542464E-1,-1.7271158E-1,-4.0935528E-2,3.3908913E-1,2.036081E-2,-2.0599313E-2,2.7209677E-2,3.1475376E-2,5.2952313E-1,4.1757017E-1,4.4118457E-2,2.5063553E-1,1.449009E-2,6.111289E-2,-1.937784E-2,4.5311246E-2,-5.006226E-3,7.0566855E-2,2.6174673E-1,2.0142607E-2,-3.5379684E-1,3.3312295E-2,-1.9690609E-2,4.513293E-1,4.001315E-2,4.804948E-2,5.490153E-3,-8.533597E-2,9.988351E-2,5.4243255E-1,1.9145548E-2,7.8986E-2,-1.1768632E-1,2.4297984E-1,1.1439214E-1,2.3406568E-1,-1.1663827E-3,-1.3521865E-1,2.4881281E-1,-3.7893376E-1,9.64345E-2,2.113465E-1,1.0652406E-1,-1.041658E-1,1.1012932E-1],"categories":[],"categories_nodes":[],"categories_segments":[],"categories_sizes":[],"default_left":[0,0,1,0,1,0,0,1,1,0,0,0,0,1,0,1,0,0,0,1,0,1,0,1,0,0,0,0,0,0,0,0,0,0,0,0,1,0,0,0,0,0,0,0,0,0,0,0,0,0,1,0,0,1,0,0,1,0,0,0,0,0,0,0,0,0,0,0,0,0,0,0,0,0,0,0,0,0,0,0,0,0,0,0,0,0,0,0,0,0,0,0,0,0,0,0,0,0,0,0,0,0,0,0,0,0,0,0,0,0,0,0,0,0,0,0,0,0,0,0,0,0,0,0,0,0,0],"id":9,"left_children":[1,3,5,7,9,11,13,15,17,19,21,23,25,27,29,31,33,35,37,39,41,43,45,47,49,51,53,55,57,59,61,63,65,67,69,71,73,75,77,79,81,83,85,87,89,91,93,95,97,99,101,103,105,107,109,111,113,115,117,119,121,123,125,-1,-1,-1,-1,-1,-1,-1,-1,-1,-1,-1,-1,-1,-1,-1,-1,-1,-1,-1,-1,-1,-1,-1,-1,-1,-1,-1,-1,-1,-1,-1,-1,-1,-1,-1,-1,-1,-1,-1,-1,-1,-1,-1,-1,-1,-1,-1,-1,-1,-1,-1,-1,-1,-1,-1,-1,-1,-1,-1,-1,-1,-1,-1,-1],"loss_changes":[2.0574507E3,2.3466907E2,3.340409E2,9.936951E0,8.7851685E1,8.865193E1,2.4216553E1,4.0510864E0,6.0312805E0,2.5349396E1,1.3160513E1,2.335266E1,2.014743E1,1.499707E1,7.9023438E0,3.6539917E0,1.0618565E1,7.5352783E0,1.4593495E1,1.6653503E1,1.57725525E1,1.3561491E1,1.7471344E1,7.580928E0,1.5707548E1,1.5081047E1,4.1323914E1,1.1917526E1,8.749634E0,1.64962E1,6.753418E0,4.5945435E0,1.2408302E1,9.3326645E0,4.0001955E0,7.7147217E0,8.531517E0,1.96418E1,1.232047E1,1.8040253E1,1.1268203E1,1.4742355E1,1.6174555E1,1.423062E1,2.6797966E1,9.861858E0,1.5606464E1,8.51281E0,7.440795E0,1.1766666E1,1.2396517E1,7.1822653E0,1.3123665E1,9.786819E0,1.2614166E1,2.0975264E1,1.2302673E1,1.3192604E1,6.2290177E0,1.7003647E1,1.2426346E1,1.3803215E1,1.3552734E1,0E0,0E0,0E0,0E0,0E0,0E0,0E0,0E0,0E0,0E0,0E0,0E0,0E0,0E0,0E0,0E0,0E0,0E0,0E0,0E0,0E0,0E0,0E0,0E0,0E0,0E0,0E0,0E0,0E0,0E0,0E0,0E0,0E0,0E0,0E0,0E0,0E0,0E0,0E0,0E0,0E0,0E0,0E0,0E0,0E0,0E0,0E0,0E0,0E0,0E0,0E0,0E0,0E0,0E0,0E0,0E0,0E0,0E0,0E0,0E0,0E0,0E0,0E0,0E0],"parents":[2147483647,0,0,1,1,2,2,3,3,4,4,5,5,6,6,7,7,8,8,9,9,10,10,11,11,12,12,13,13,14,14,15,15,16,16,17,17,18,18,19,19,20,20,21,21,22,22,23,23,24,24,25,25,26,26,27,27,28,28,29,29,30,30,31,31,32,32,33,33,34,34,35,35,36,36,37,37,38,38,39,39,40,40,41,41,42,42,43,43,44,44,45,45,46,46,47,47,48,48,49,49,50,50,51,51,52,52,53,53,54,54,55,55,56,56,57,57,58,58,59,59,60,60,61,61,62,62],"right_children":[2,4,6,8,10,12,14,16,18,20,22,24,26,28,30,32,34,36,38,40,42,44,46,48,50,52,54,56,58,60,62,64,66,68,70,72,74,76,78,80,82,84,86,88,90,92,94,96,98,100,102,104,106,108,110,112,114,116,118,120,122,124,126,-1,-1,-1,-1,-1,-1,-1,-1,-1,-1,-1,-1,-1,-1,-1,-1,-1,-1,-1,-1,-1,-1,-1,-1,-1,-1,-1,-1,-1,-1,-1,-1,-1,-1,-1,-1,-1,-1,-1,-1,-1,-1,-1,-1,-1,-1,-1,-1,-1,-1,-1,-1,-1,-1,-1,-1,-1,-1,-1,-1,-1,-1,-1,-1],"split_conditions":[3.0408347E-1,-8.653786E-1,9.326E-1,1E0,-3.364E-1,1.129E-1,1.4975E0,-8.258E-1,1.4863E0,-9.708E-1,1.084125E0,8.888145E-1,1E0,1.6215E0,-3.6374626E-1,-1.1133E0,-6.989E-1,1.1645623E0,-1.7311802E0,-4.451E-1,2.451559E0,6.272E-1,-1.8116E0,2.62E-2,-1.6507E0,8.888145E-1,8.888145E-1,-1.2083E0,8.83E-1,1.1864E0,1.3677E0,-1.3902E0,1.2449995E0,-1.627E-1,2.798E-1,-2.4149E0,1.245E0,7.87E-2,3.8440194E-2,-1.0615E0,5.211E-1,-2.4953346E0,-7.896E-1,5.481E-1,2.0092E0,2.316E-1,-1.6105E0,-7.178E-1,1.168E-1,1.0439063E0,1.0623E0,-2.4309033E-1,-2.8171E0,1.0623E0,-1.329E0,-2.2138E0,1.6033E0,1.7121E0,1.1139E0,1.0037E0,4.69E-1,1.2952E0,8.888145E-1,-1.0660534E-1,-8.7781124E-2,-1.0703459E-1,-2.6157787E-1,-1.1245628E-1,1.8176249E-1,-5.2824575E-2,-3.5225075E-1,9.2013106E-2,-8.701247E-2,-5.8869205E-2,1.19933486E-1,-1.4720933E-2,6.704414E-1,-1.1538423E-1,9.52644E-3,-6.232771E-2,-1.1495078E-1,5.1062185E-2,-1.04542464E-1,-1.7271158E-1,-4.0935528E-2,3.3908913E-1,2.036081E-2,-2.0599313E-2,2.7209677E-2,3.1475376E-2,5.2952313E-1,4.1757017E-1,4.4118457E-2,2.5063553E-1,1.449009E-2,6.111289E-2,-1.937784E-2,4.5311246E-2,-5.006226E-3,7.0566855E-2,2.6174673E-1,2.0142607E-2,-3.5379684E-1,3.3312295E-2,-1.9690609E-2,4.513293E-1,4.001315E-2,4.804948E-2,5.490153E-3,-8.533597E-2,9.988351E-2,5.4243255E-1,1.9145548E-2,7.8986E-2,-1.1768632E-1,2.4297984E-1,1.1439214E-1,2.3406568E-1,-1.1663827E-3,-1.3521865E-1,2.4881281E-1,-3.7893376E-1,9.64345E-2,2.113465E-1,1.0652406E-1,-1.041658E-1,1.1012932E-1],"split_indices":[6,6,2,8,2,1,1,2,3,2,7,6,8,5,7,1,2,7,7,5,7,4,0,5,0,6,6,0,0,2,2,1,7,0,0,3,3,0,7,2,0,7,2,1,0,4,3,1,5,7,4,7,0,1,3,3,5,5,2,0,4,5,6,0,0,0,0,0,0,0,0,0,0,0,0,0,0,0,0,0,0,0,0,0,0,0,0,0,0,0,0,0,0,0,0,0,0,0,0,0,0,0,0,0,0,0,0,0,0,0,0,0,0,0,0,0,0,0,0,0,0,0,0,0,0,0,0],"split_type":[0,0,0,0,0,0,0,0,0,0,0,0,0,0,0,0,0,0,0,0,0,0,0,0,0,0,0,0,0,0,0,0,0,0,0,0,0,0,0,0,0,0,0,0,0,0,0,0,0,0,0,0,0,0,0,0,0,0,0,0,0,0,0,0,0,0,0,0,0,0,0,0,0,0,0,0,0,0,0,0,0,0,0,0,0,0,0,0,0,0,0,0,0,0,0,0,0,0,0,0,0,0,0,0,0,0,0,0,0,0,0,0,0,0,0,0,0,0,0,0,0,0,0,0,0,0,0],"sum_hessian":[6.522E4,3.2698E4,3.2522E4,1.1179E4,2.1519E4,2.0833E4,1.1689E4,5.565E3,5.614E3,1.5279E4,6.24E3,8.039E3,1.2794E4,4.769E3,6.92E3,5.51E3,5.5E1,5.316E3,2.98E2,3.143E3,1.2136E4,5.375E3,8.65E2,4.406E3,3.633E3,6.531E3,6.263E3,4.309E3,4.6E2,2.422E3,4.498E3,4.928E3,5.82E2,3.9E1,1.6E1,4.621E3,6.95E2,1.5E1,2.83E2,2.93E3,2.13E2,1.2048E4,8.8E1,5.005E3,3.7E2,2.6E1,8.39E2,3.215E3,1.191E3,1.76E2,3.457E3,9.8E2,5.551E3,4.449E3,1.814E3,4.72E2,3.837E3,3.84E2,7.6E1,6.3E1,2.359E3,4.87E2,4.011E3,2.021E3,2.907E3,5.31E2,5.1E1,1.5E1,2.4E1,8E0,8E0,2.1E1,4.6E3,6.71E2,2.4E1,1E1,5E0,1.42E2,1.41E2,2.116E3,8.14E2,1.57E2,5.6E1,7.6E1,1.1972E4,1.7E1,7.1E1,4.363E3,6.42E2,3.61E2,9E0,1.5E1,1.1E1,2.5E1,8.14E2,1.22E2,3.093E3,3.95E2,7.96E2,1.4E2,3.6E1,3.45E3,7E0,3.67E2,6.13E2,6E0,5.545E3,3.893E3,5.56E2,3.3E1,1.781E3,6E0,4.66E2,3.809E3,2.8E1,9.7E1,2.87E2,1.1E1,6.5E1,5.1E1,1.2E1,4E0,2.355E3,1.84E2,3.03E2,2.6E1,3.985E3],"tree_param":{"num_deleted":"0","num_feature":"9","num_nodes":"127","size_leaf_vector":"1"}},{"base_weights":[1.6730355E-5,-1.2399067E-1,1.24695204E-1,-1.675552E-1,-3.2244697E-2,7.152143E-2,2.1945119E-1,-1.9658169E-1,-1.14335254E-1,-8.8492766E-2,2.8683182E-2,1.3891406E-2,1.07728854E-1,1.9522822E-1,2.672311E-1,-2.3538224E-1,-1.7619547E-1,-5.384346E-1,-1.114845E-1,-2.2677477E-3,-9.819941E-2,2.717496E-1,1.9600956E-2,-1.1283927E-1,2.6810925E-2,1.02284E-1,3.0870715E-1,1.2274601E-1,2.1225925E-1,4.218031E-1,2.6312658E-1,-2.0344158E-1,-2.9518273E-1,-2.129149E-1,-1.3711023E-1,-2.0579343E-1,-1.34523E0,-1.5893702E-1,-8.846169E-2,-1.4920546E-1,2.1716063E-1,-1.3058648E0,-9.6705474E-2,1.6383825E-1,9.1291606E-1,-1.283447E0,2.1470662E-2,-9.5881246E-2,-8.324039E-1,-1.6457943E-2,6.25782E-2,7.816078E-2,1.5675692E-1,3.7761515E-1,-2.1237513E-1,-2.200801E-1,1.5483482E-1,4.8597947E-1,2.0589642E-1,9.040041E-1,2.4901603E-1,-7.837119E-1,2.6415172E-1,-9.7467415E-2,-5.565573E-2,-9.17543E-2,7.749639E-2,4.306447E-2,-6.574585E-2,-4.3133445E-2,2.0456503E-1,1.6953327E-1,-1.6223867E-1,-4.941686E-1,1.2355223E-1,-4.037816E-2,-1.8958628E-1,-3.238595E-2,1.48579255E-2,-1.01268046E-1,3.195661E-2,3.2770398E-1,2.8832689E-2,-1.2853132E-1,-4.912407E-1,-1.1104571E-1,-2.7215594E-2,2.1778211E-2,2.59324E-1,3.2530025E-1,-2.2882004E-1,-5.3632915E-1,-1.3748053E-1,3.978659E-1,5.8763255E-3,-2.414637E-2,-2.808972E-1,-4.9499676E-1,-1.06273286E-1,-1.5814175E-3,-8.749748E-2,-1.5959643E-1,2.0072667E-2,1.8834598E-2,4.662884E-2,3.733443E-2,8.5914016E-2,1.0723413E-1,5.3118205E-1,-1.4996806E-1,2.5005287E-1,-3.5346094E-1,-3.843575E-2,5.881576E-2,-1.5802369E-2,1.1111475E-1,2.9624233E-1,5.0883558E-2,7.366128E-2,3.293151E-1,-3.8739968E-2,1.5073933E-1,-3.8077705E-2,-4.72518E-1,2.3854981E-1,3.672543E-2,8.070657E-2],"categories":[],"categories_nodes":[],"categories_segments":[],"categories_sizes":[],"default_left":[0,0,1,1,0,0,1,0,0,0,0,0,1,0,0,0,0,0,1,0,0,0,0,1,1,0,0,0,0,0,0,0,0,0,1,0,0,1,0,0,0,0,0,0,1,0,0,0,0,1,0,1,0,0,0,0,0,0,0,0,0,0,0,0,0,0,0,0,0,0,0,0,0,0,0,0,0,0,0,0,0,0,0,0,0,0,0,0,0,0,0,0,0,0,0,0,0,0,0,0,0,0,0,0,0,0,0,0,0,0,0,0,0,0,0,0,0,0,0,0,0,0,0,0,0,0,0],"id":10,"left_children":[1,3,5,7,9,11,13,15,17,19,21,23,25,27,29,31,33,35,37,39,41,43,45,47,49,51,53,55,57,59,61,63,65,67,69,71,73,75,77,79,81,83,85,87,89,91,93,95,97,99,101,103,105,107,109,111,113,115,117,119,121,123,125,-1,-1,-1,-1,-1,-1,-1,-1,-1,-1,-1,-1,-1,-1,-1,-1,-1,-1,-1,-1,-1,-1,-1,-1,-1,-1,-1,-1,-1,-1,-1,-1,-1,-1,-1,-1,-1,-1,-1,-1,-1,-1,-1,-1,-1,-1,-1,-1,-1,-1,-1,-1,-1,-1,-1,-1,-1,-1,-1,-1,-1,-1,-1,-1],"loss_changes":[1.0084008E3,1.306883E2,1.6385254E2,3.422699E1,3.608622E1,4.3471428E1,1.3477539E1,1.130542E1,9.402863E0,4.5821075E0,1.1154009E1,1.3166911E1,1.3969971E1,9.554474E0,2.3823547E0,9.371857E0,1.3473053E1,1.3678574E1,8.48114E0,1.7926884E1,8.75206E0,1.2442851E1,1.1902171E1,8.998767E0,1.1293937E1,1.635965E1,1.2180771E1,1.6304384E1,1.0842621E1,8.106695E0,4.318268E0,6.953003E0,1.021463E1,1.081366E1,2.5000114E1,1.0119284E1,8.63789E0,2.9150856E1,1.4093418E1,1.6075726E1,2.352024E1,1.0441961E0,8.014309E0,9.973227E0,8.295206E0,2.0937834E0,1.1933365E1,9.342936E0,6.0614166E0,1.0166887E1,1.03222475E1,1.0253582E1,1.5974968E1,7.7391014E0,1.2445107E1,1.1039007E1,1.1582615E1,7.8661804E0,8.792786E0,5.345186E0,7.2099123E0,6.250201E0,2.6094055E0,0E0,0E0,0E0,0E0,0E0,0E0,0E0,0E0,0E0,0E0,0E0,0E0,0E0,0E0,0E0,0E0,0E0,0E0,0E0,0E0,0E0,0E0,0E0,0E0,0E0,0E0,0E0,0E0,0E0,0E0,0E0,0E0,0E0,0E0,0E0,0E0,0E0,0E0,0E0,0E0,0E0,0E0,0E0,0E0,0E0,0E0,0E0,0E0,0E0,0E0,0E0,0E0,0E0,0E0,0E0,0E0,0E0,0E0,0E0,0E0,0E0,0E0,0E0,0E0],"parents":[2147483647,0,0,1,1,2,2,3,3,4,4,5,5,6,6,7,7,8,8,9,9,10,10,11,11,12,12,13,13,14,14,15,15,16,16,17,17,18,18,19,19,20,20,21,21,22,22,23,23,24,24,25,25,26,26,27,27,28,28,29,29,30,30,31,31,32,32,33,33,34,34,35,35,36,36,37,37,38,38,39,39,40,40,41,41,42,42,43,43,44,44,45,45,46,46,47,47,48,48,49,49,50,50,51,51,52,52,53,53,54,54,55,55,56,56,57,57,58,58,59,59,60,60,61,61,62,62],"right_children":[2,4,6,8,10,12,14,16,18,20,22,24,26,28,30,32,34,36,38,40,42,44,46,48,50,52,54,56,58,60,62,64,66,68,70,72,74,76,78,80,82,84,86,88,90,92,94,96,98,100,102,104,106,108,110,112,114,116,118,120,122,124,126,-1,-1,-1,-1,-1,-1,-1,-1,-1,-1,-1,-1,-1,-1,-1,-1,-1,-1,-1,-1,-1,-1,-1,-1,-1,-1,-1,-1,-1,-1,-1,-1,-1,-1,-1,-1,-1,-1,-1,-1,-1,-1,-1,-1,-1,-1,-1,-1,-1,-1,-1,-1,-1,-1,-1,-1,-1,-1,-1,-1,-1,-1,-1,-1],"split_conditions":[3.0408347E-1,-2.8064758E-1,9.326E-1,-9.708E-1,1E0,1.129E-1,1.6577E0,-1.1133E0,-2.5355532E0,-9.156E-1,-1.691E0,-3.726E-1,1.4183E0,-8.4637004E-1,1.2206E0,-1.279E0,3.8440194E-2,-2.6159904E0,-1.134E0,-9.346E-1,-9.89E-1,5.481E-1,-2.8573024E0,1.9689E0,-1.01E-2,1.4735456E0,1.5265E0,-1.2888E0,-1.8518E0,1.7121E0,9.87E-1,-1.0876819E0,2.2102E0,-1.279E0,2.1298E0,-7.257E-1,-4.409E-1,1.245E0,1.2048E0,-4.451E-1,-9.165E-1,-8.464E-1,-1.9323E0,1.4460928E0,6.668E-1,2.316E-1,-2.6964278E0,1.9689E0,-3.364E-1,-1.64E-1,-2.3746786E0,4.808E-1,1E0,1.3392E0,1.6033E0,3.706E-1,1.0439E0,-1.9323E0,1.4579E0,6.417E-1,1.9326E0,3.602E-1,1.2952E0,-9.7467415E-2,-5.565573E-2,-9.17543E-2,7.749639E-2,4.306447E-2,-6.574585E-2,-4.3133445E-2,2.0456503E-1,1.6953327E-1,-1.6223867E-1,-4.941686E-1,1.2355223E-1,-4.037816E-2,-1.8958628E-1,-3.238595E-2,1.48579255E-2,-1.01268046E-1,3.195661E-2,3.2770398E-1,2.8832689E-2,-1.2853132E-1,-4.912407E-1,-1.1104571E-1,-2.7215594E-2,2.1778211E-2,2.59324E-1,3.2530025E-1,-2.2882004E-1,-5.3632915E-1,-1.3748053E-1,3.978659E-1,5.8763255E-3,-2.414637E-2,-2.808972E-1,-4.9499676E-1,-1.06273286E-1,-1.5814175E-3,-8.749748E-2,-1.5959643E-1,2.0072667E-2,1.8834598E-2,4.662884E-2,3.733443E-2,8.5914016E-2,1.0723413E-1,5.3118205E-1,-1.4996806E-1,2.5005287E-1,-3.5346094E-1,-3.843575E-2,5.881576E-2,-1.5802369E-2,1.1111475E-1,2.9624233E-1,5.0883558E-2,7.366128E-2,3.293151E-1,-3.8739968E-2,1.5073933E-1,-3.8077705E-2,-4.72518E-1,2.3854981E-1,3.672543E-2,8.070657E-2],"split_indices":[6,6,2,2,8,1,5,4,7,1,0,2,4,7,1,2,7,7,5,2,2,1,7,3,5,6,3,3,3,5,2,7,0,5,3,0,1,3,3,5,2,3,0,7,4,4,7,0,5,4,7,3,8,1,5,5,0,3,1,0,4,0,2,0,0,0,0,0,0,0,0,0,0,0,0,0,0,0,0,0,0,0,0,0,0,0,0,0,0,0,0,0,0,0,0,0,0,0,0,0,0,0,0,0,0,0,0,0,0,0,0,0,0,0,0,0,0,0,0,0,0,0,0,0,0,0,0],"split_type":[0,0,0,0,0,0,0,0,0,0,0,0,0,0,0,0,0,0,0,0,0,0,0,0,0,0,0,0,0,0,0,0,0,0,0,0,0,0,0,0,0,0,0,0,0,0,0,0,0,0,0,0,0,0,0,0,0,0,0,0,0,0,0,0,0,0,0,0,0,0,0,0,0,0,0,0,0,0,0,0,0,0,0,0,0,0,0,0,0,0,0,0,0,0,0,0,0,0,0,0,0,0,0,0,0,0,0,0,0,0,0,0,0,0,0,0,0,0,0,0,0,0,0,0,0,0,0],"sum_hessian":[6.522E4,3.2698E4,3.2522E4,2.217E4,1.0528E4,2.0833E4,1.1689E4,1.4344E4,7.826E3,5.474E3,5.054E3,8.039E3,1.2794E4,7.76E3,3.929E3,4.937E3,9.407E3,5.1E1,7.775E3,5.54E2,4.92E3,1.81E2,4.873E3,7.43E2,7.296E3,1.2458E4,3.36E2,1.478E3,6.282E3,9.9E1,3.83E3,3.221E3,1.716E3,4.848E3,4.559E3,3.7E1,1.4E1,2.538E3,5.237E3,3.32E2,2.22E2,5E0,4.915E3,1.56E2,2.5E1,6E0,4.867E3,7.27E2,1.6E1,3.302E3,3.994E3,8.636E3,3.822E3,2.97E2,3.9E1,1.26E2,1.352E3,1.41E2,6.141E3,2.5E1,7.4E1,3E0,3.827E3,4.12E2,2.809E3,1.684E3,3.2E1,8.3E1,4.765E3,4.523E3,3.6E1,1.1E1,2.6E1,1.2E1,2E0,2.415E3,1.23E2,4.589E3,6.48E2,1.91E2,1.41E2,2.6E1,1.96E2,2E0,3E0,1.04E2,4.811E3,1.39E2,1.7E1,2.3E1,2E0,3E0,3E0,6E0,4.861E3,7.15E2,1.2E1,5E0,1.1E1,3.174E3,1.28E2,2.8E1,3.966E3,7.204E3,1.432E3,3.061E3,7.61E2,2.94E2,3E0,3.1E1,8E0,1E1,1.16E2,1.128E3,2.24E2,1.16E2,2.5E1,3.209E3,2.932E3,2.1E1,4E0,4.4E1,3E1,2E0,1E0,1.28E2,3.699E3],"tree_param":{"num_deleted":"0","num_feature":"9","num_nodes":"127","size_leaf_vector":"1"}},{"base_weights":[2.5102474E-7,-8.6824216E-2,8.729458E-2,-1.4877105E-1,-5.4637767E-2,3.4490213E-2,1.3932641E-1,-5.824769E-1,-1.4677036E-1,-9.035841E-2,-1.6407032E-2,5.859953E-3,9.387603E-2,7.957379E-2,1.7041546E-1,-5.5234306E-2,-8.0062705E-1,-1.475315E-1,5.707175E-1,-1.17787525E-1,-6.203104E-2,-5.0948974E-2,2.0099292E-2,-3.7557562E-4,1.0559008E-1,3.8693807E-1,8.966968E-2,8.592285E-2,-1.277985E-1,1.4747177E-1,1.9383961E-1,1.000026E0,-9.871064E-1,-9.5890236E-1,-1.2680069E-1,-3.4587193E-1,-1.4493422E-1,7.4159586E-1,-1.9634165E-1,-9.652475E-2,-1.7786582E-1,-2.335605E-3,-7.569816E-2,-4.0541565E-1,-4.684571E-2,6.7578234E-2,-2.5545752E-2,4.974226E-3,-1.3862915E-1,7.9337204E-1,4.9833983E-2,6.5385973E-1,-3.664434E-1,-1.7302887E-1,9.829664E-2,8.4252164E-2,1.210203E0,-2.6350185E-1,3.7333044E-1,1.4548162E-1,6.80225E-1,2.7747792E-1,1.919905E-1,5.9625246E-2,3.7019783E-1,-4.6984866E-1,3.8476184E-2,-2.4705271E-1,-5.573424E-1,-1.9748263E-1,9.7121775E-2,-2.2665089E-2,-1.6555563E-1,9.224977E-3,-4.444429E-2,3.38928E-1,1.4954052E-2,-2.4546904E-2,-8.028565E-2,7.623467E-2,-6.2329847E-2,-3.5896946E-2,3.275054E-2,-3.558567E-2,-1.0333072E-2,1.6097158E-1,-1.8701531E-1,1.1888903E-1,-1.5810331E-2,-1.133653E-1,2.3749864E-2,-8.904754E-2,-1.0036973E-3,1.0180167E-3,2.2391272E-1,-1.4729232E-1,-6.0865455E-3,3.5379276E-1,-6.844203E-2,1.8582923E-2,-5.2552265E-1,-9.835214E-2,2.8063405E-1,-2.90804E-1,3.6056656E-1,-7.3360026E-1,-3.904374E-2,1.6538125E-1,2.6943477E-2,2.2782285E-2,6.848723E-2,7.1226485E-2,6.370888E-1,1.3975552E-1,-1.1482481E-1,-9.836357E-2,2.503374E-1,1.236532E-1,4.25004E-2,2.6447025E-1,-3.0034792E-2,-1.1781922E-1,8.6090535E-2,2.766086E-2,5.8532923E-2],"categories":[],"categories_nodes":[],"categories_segments":[],"categories_sizes":[],"default_left":[0,0,0,0,0,0,0,0,1,0,0,1,0,1,0,0,1,0,0,0,0,0,1,1,0,1,0,1,0,0,0,0,0,1,0,0,0,1,0,1,0,0,0,0,0,0,0,1,0,0,0,0,0,0,0,1,0,0,0,0,0,0,0,0,0,0,0,0,0,0,0,0,0,0,0,0,0,0,0,0,0,0,0,0,0,0,0,0,0,0,0,0,0,0,0,0,0,0,0,0,0,0,0,0,0,0,0,0,0,0,0,0,0,0,0,0,0,0,0,0,0,0,0,0,0],"id":11,"left_children":[1,3,5,7,9,11,13,15,17,19,21,23,25,27,29,31,33,35,37,39,41,43,45,47,49,51,53,55,57,59,61,63,65,67,69,71,73,75,-1,77,79,81,83,85,87,89,91,93,95,97,99,101,103,105,107,109,111,113,115,117,119,121,123,-1,-1,-1,-1,-1,-1,-1,-1,-1,-1,-1,-1,-1,-1,-1,-1,-1,-1,-1,-1,-1,-1,-1,-1,-1,-1,-1,-1,-1,-1,-1,-1,-1,-1,-1,-1,-1,-1,-1,-1,-1,-1,-1,-1,-1,-1,-1,-1,-1,-1,-1,-1,-1,-1,-1,-1,-1,-1,-1,-1,-1,-1],"loss_changes":[4.94336E2,6.518875E1,8.93524E1,9.615555E0,2.9386795E1,2.7446281E1,3.0416656E1,5.821699E0,6.1623535E0,8.636765E0,1.3110373E1,6.7740703E0,6.43832E0,7.394581E0,5.7617493E0,1.6721016E1,3.7178135E0,5.677765E0,2.997654E0,7.2015915E0,4.4666824E0,7.750781E0,1.0956813E1,7.5841074E0,2.4541557E1,1.5120545E1,1.1751862E1,1.0119835E1,1.1455187E1,5.6762695E0,7.707367E-1,1.2545166E0,6.013568E0,1.9995441E0,2.1287143E0,7.9206753E0,6.201584E0,2.8973188E0,0E0,1.04823265E1,1.9117386E1,1.33695345E1,7.884285E0,1.285924E1,1.3726461E1,1.2821381E1,1.5524826E1,1.1567795E1,1.5918203E1,1.919254E1,1.3066881E1,1.551055E1,2.0076092E1,1.5759924E1,1.9221851E1,6.4891014E0,6.6043158E0,1.165882E1,1.19140835E1,5.462311E0,3.2305746E0,8.314533E-1,1.6055603E0,0E0,0E0,0E0,0E0,0E0,0E0,0E0,0E0,0E0,0E0,0E0,0E0,0E0,0E0,0E0,0E0,0E0,0E0,0E0,0E0,0E0,0E0,0E0,0E0,0E0,0E0,0E0,0E0,0E0,0E0,0E0,0E0,0E0,0E0,0E0,0E0,0E0,0E0,0E0,0E0,0E0,0E0,0E0,0E0,0E0,0E0,0E0,0E0,0E0,0E0,0E0,0E0,0E0,0E0,0E0,0E0,0E0,0E0,0E0,0E0,0E0,0E0],"parents":[2147483647,0,0,1,1,2,2,3,3,4,4,5,5,6,6,7,7,8,8,9,9,10,10,11,11,12,12,13,13,14,14,15,15,16,16,17,17,18,18,19,19,20,20,21,21,22,22,23,23,24,24,25,25,26,26,27,27,28,28,29,29,30,30,31,31,32,32,33,33,34,34,35,35,36,36,37,37,39,39,40,40,41,41,42,42,43,43,44,44,45,45,46,46,47,47,48,48,49,49,50,50,51,51,52,52,53,53,54,54,55,55,56,56,57,57,58,58,59,59,60,60,61,61,62,62],"right_children":[2,4,6,8,10,12,14,16,18,20,22,24,26,28,30,32,34,36,38,40,42,44,46,48,50,52,54,56,58,60,62,64,66,68,70,72,74,76,-1,78,80,82,84,86,88,90,92,94,96,98,100,102,104,106,108,110,112,114,116,118,120,122,124,-1,-1,-1,-1,-1,-1,-1,-1,-1,-1,-1,-1,-1,-1,-1,-1,-1,-1,-1,-1,-1,-1,-1,-1,-1,-1,-1,-1,-1,-1,-1,-1,-1,-1,-1,-1,-1,-1,-1,-1,-1,-1,-1,-1,-1,-1,-1,-1,-1,-1,-1,-1,-1,-1,-1,-1,-1,-1,-1,-1,-1,-1],"split_conditions":[3.0408347E-1,-8.653786E-1,1E0,-2.5356E0,1E0,1.4735456E0,8.888145E-1,-4.844E-1,3.0146E0,-2.8064758E-1,-2.8064758E-1,3.107E-1,2.075E-1,1.2408E0,1.4735456E0,-3.6374626E-1,-8.802E-1,-2.213804E0,-3.222E-1,1.0841E0,-8.4637004E-1,-9.551E-1,-5.648E-1,7.332E-1,-1.3692124E0,5.481E-1,3.525E-1,1.6557E0,1.7348E0,2.8135269E0,-1.9724921E0,-1.4059E0,1.9931479E-1,-7.573E-1,-3.637E-1,-1.224E-1,-1.8518362E0,2.395E-1,-1.9634165E-1,1.3254E0,-1.232E0,-1.2887751E0,2.3953342E-1,-1.0475E0,-8.76E-1,-4.089E-1,-4.04E-1,8.601E-1,2.712E-1,6.417E-1,7.063E-1,-2.826E-1,9.041E-1,6.25E-2,-4.53E-2,1.5265E0,2.395E-1,4.431E-1,-1.627E-1,8.645E-1,2.0117E0,-2.978E0,-1.5703057E0,5.9625246E-2,3.7019783E-1,-4.6984866E-1,3.8476184E-2,-2.4705271E-1,-5.573424E-1,-1.9748263E-1,9.7121775E-2,-2.2665089E-2,-1.6555563E-1,9.224977E-3,-4.444429E-2,3.38928E-1,1.4954052E-2,-2.4546904E-2,-8.028565E-2,7.623467E-2,-6.2329847E-2,-3.5896946E-2,3.275054E-2,-3.558567E-2,-1.0333072E-2,1.6097158E-1,-1.8701531E-1,1.1888903E-1,-1.5810331E-2,-1.133653E-1,2.3749864E-2,-8.904754E-2,-1.0036973E-3,1.0180167E-3,2.2391272E-1,-1.4729232E-1,-6.0865455E-3,3.5379276E-1,-6.844203E-2,1.8582923E-2,-5.2552265E-1,-9.835214E-2,2.8063405E-1,-2.90804E-1,3.6056656E-1,-7.3360026E-1,-3.904374E-2,1.6538125E-1,2.6943477E-2,2.2782285E-2,6.848723E-2,7.1226485E-2,6.370888E-1,1.3975552E-1,-1.1482481E-1,-9.836357E-2,2.503374E-1,1.236532E-1,4.25004E-2,2.6447025E-1,-3.0034792E-2,-1.1781922E-1,8.6090535E-2,2.766086E-2,5.8532923E-2],"split_indices":[6,6,8,0,8,6,6,3,0,6,6,4,2,2,6,7,5,7,1,0,7,1,3,2,7,4,2,1,1,7,7,5,7,4,3,0,7,3,0,3,1,7,7,3,1,5,3,5,1,3,1,1,4,5,1,0,3,5,3,4,1,0,7,0,0,0,0,0,0,0,0,0,0,0,0,0,0,0,0,0,0,0,0,0,0,0,0,0,0,0,0,0,0,0,0,0,0,0,0,0,0,0,0,0,0,0,0,0,0,0,0,0,0,0,0,0,0,0,0,0,0,0,0,0,0],"split_type":[0,0,0,0,0,0,0,0,0,0,0,0,0,0,0,0,0,0,0,0,0,0,0,0,0,0,0,0,0,0,0,0,0,0,0,0,0,0,0,0,0,0,0,0,0,0,0,0,0,0,0,0,0,0,0,0,0,0,0,0,0,0,0,0,0,0,0,0,0,0,0,0,0,0,0,0,0,0,0,0,0,0,0,0,0,0,0,0,0,0,0,0,0,0,0,0,0,0,0,0,0,0,0,0,0,0,0,0,0,0,0,0,0,0,0,0,0,0,0,0,0,0,0,0,0],"sum_hessian":[6.522E4,3.2698E4,3.2522E4,1.1179E4,2.1519E4,1.6142E4,1.638E4,5E1,1.1129E4,1.1124E4,1.0395E4,1.0892E4,5.25E3,5.607E3,1.0773E4,1.5E1,3.5E1,1.1118E4,1.1E1,5.65E3,5.474E3,5.341E3,5.054E3,1.0252E4,6.4E2,7.3E1,5.177E3,5.441E3,1.66E2,5.446E3,5.327E3,7E0,8E0,2.8E1,7E0,1.42E2,1.0976E4,1E1,1E0,4.175E3,1.475E3,1.02E3,4.454E3,6E1,5.281E3,2.477E3,2.577E3,9.871E3,3.81E2,4.7E1,5.93E2,5.4E1,1.9E1,1.64E2,5.013E3,5.434E3,7E0,1.31E2,3.5E1,5.427E3,1.9E1,1.12E2,5.215E3,2E0,5E0,5E0,3E0,2.6E1,2E0,3E0,4E0,6.2E1,8E1,1.97E2,1.0779E4,6E0,4E0,3.846E3,3.29E2,9.5E1,1.38E3,4.97E2,5.23E2,2.182E3,2.272E3,1.1E1,4.9E1,6.8E1,5.213E3,6.2E1,2.415E3,1.94E2,2.383E3,9.851E3,2E1,9.5E1,2.86E2,3.4E1,1.3E1,5.9E2,3E0,1.2E1,4.2E1,1.4E1,5E0,2E0,1.62E2,9.1E1,4.922E3,5.139E3,2.95E2,4E0,3E0,1.8E1,1.13E2,1.4E1,2.1E1,7.5E1,5.352E3,1.5E1,4E0,1E0,1.11E2,1.59E2,5.056E3],"tree_param":{"num_deleted":"0","num_feature":"9","num_nodes":"125","size_leaf_vector":"1"}},{"base_weights":[-3.6850113E-6,-6.081414E-2,6.1135847E-2,-1.0422672E-1,-3.8257748E-2,2.411385E-2,9.761622E-2,-4.2550454E-1,-1.027452E-1,-6.326339E-2,-1.149496E-2,-1.8868914E-2,4.5493357E-2,3.7607897E-2,1.1458196E-1,-3.876082E-2,-5.8557105E-1,-1.0426733E-1,2.2353184E-1,-6.5644495E-2,1.18768655E-1,-4.441557E-2,2.1931993E-2,-3.0814562E-2,4.8023477E-2,4.400302E-2,6.849356E-1,-1.3282904E-1,5.455716E-2,-7.4219406E-1,1.1511002E-1,7.5374615E-1,-7.389047E-1,-6.989694E-1,-1.01305574E-1,-1.00064375E-1,-2.3281984E-1,1.2852882E-1,1.3314358E0,-3.7937846E-2,-8.2718015E-2,9.743672E-1,2.642401E-2,3.572151E-1,-4.9138445E-2,-1.290792E-1,4.716957E-2,4.356893E-1,-3.2866474E-2,3.90293E-1,-1.889263E-2,4.286316E-2,5.519719E-1,-1.8851344E-1,1.1070595E0,3.5390696E-3,-5.1501805E-1,6.763059E-2,-1.9156767E-1,2.3170997E-1,-1.068898E0,7.650131E-1,1.1408105E-1,4.2909622E-2,2.8004366E-1,-3.5238647E-1,2.9819066E-2,4.7952157E-2,-2.3055153E-1,-1.308933E-1,1.02833286E-1,-3.3677533E-2,-1.3795773E-2,-6.336226E-2,-4.3101725E-1,-3.808668E-1,5.5231404E-2,1.1465614E-1,4.561369E-1,-5.876975E-2,-5.747384E-3,-5.2109864E-2,-2.0429138E-2,3.4679163E-1,-2.0797439E-1,-8.311705E-2,9.613541E-2,-5.4360203E-2,3.2669246E-1,1.4220951E-1,-1.5745157E-2,-6.600317E-2,-7.5965055E-4,6.847078E-3,4.6851076E-2,-6.4404696E-2,2.1892634E-1,-1.6958189E-1,-9.256504E-3,2.455843E-2,3.0369163E-1,-2.7153462E-2,4.8407868E-2,1.4936564E-2,-2.3873959E-2,3.986751E-1,-2.9373469E-2,3.0450737E-1,-2.0321548E-1,-3.2638624E-2,4.1261128E-1,-1.2436834E-2,2.6082042E-1,3.5312742E-2,-2.568243E-1,2.1029059E-2,-3.6733735E-1,-3.6600992E-1,-3.321259E-2,-3.4662524E-1,-8.246713E-2,3.284827E-1,-1.3312879E-1,3.2573905E-2,5.7193242E-2],"categories":[],"categories_nodes":[],"categories_segments":[],"categories_sizes":[],"default_left":[0,0,0,0,0,0,0,0,1,1,0,0,0,0,0,0,1,1,0,0,0,0,0,0,0,1,1,0,0,0,0,0,0,0,0,1,0,0,0,0,0,0,1,0,0,0,1,1,0,0,1,1,1,0,0,0,0,0,0,0,0,0,0,0,0,0,0,0,0,0,0,0,0,0,0,0,0,0,0,0,0,0,0,0,0,0,0,0,0,0,0,0,0,0,0,0,0,0,0,0,0,0,0,0,0,0,0,0,0,0,0,0,0,0,0,0,0,0,0,0,0,0,0,0,0],"id":12,"left_children":[1,3,5,7,9,11,13,15,17,19,21,23,25,27,29,31,33,35,37,39,41,43,45,47,49,51,53,55,57,59,61,63,65,67,69,71,73,75,77,79,81,83,85,87,89,91,93,95,97,99,101,103,105,107,109,111,113,115,117,-1,119,121,123,-1,-1,-1,-1,-1,-1,-1,-1,-1,-1,-1,-1,-1,-1,-1,-1,-1,-1,-1,-1,-1,-1,-1,-1,-1,-1,-1,-1,-1,-1,-1,-1,-1,-1,-1,-1,-1,-1,-1,-1,-1,-1,-1,-1,-1,-1,-1,-1,-1,-1,-1,-1,-1,-1,-1,-1,-1,-1,-1,-1,-1,-1],"loss_changes":[2.4249036E2,3.2015892E1,4.392244E1,5.2777557E0,1.44009E1,1.4835471E1,1.6672943E1,3.1344442E0,5.550865E0,4.829796E0,1.1441104E1,4.286908E0,1.0243984E1,1.0441521E1,5.8629456E0,9.434849E0,1.906127E0,5.9626846E0,5.3020916E0,5.1918983E0,1.1351685E1,9.953264E0,1.9667845E1,4.3706493E0,1.8627792E1,6.2047863E0,9.426288E0,1.7044537E1,1.0586302E1,4.784084E0,8.447708E0,7.4460506E-1,3.4041147E0,1.8546562E0,1.3397199E0,7.070587E0,8.803255E0,4.0410185E0,1.3661098E-1,1.2422905E1,9.025761E0,5.041234E0,1.1778131E1,2.423077E1,9.087509E0,8.503187E0,1.1728566E1,3.9816976E0,4.8359547E0,2.5432951E1,8.80595E0,9.106016E0,1.2248287E1,5.9829407E0,5.695507E0,9.4642725E0,1.8659552E1,1.0031332E1,1.3669612E1,0E0,1.6326666E-1,8.4621E0,5.347107E0,0E0,0E0,0E0,0E0,0E0,0E0,0E0,0E0,0E0,0E0,0E0,0E0,0E0,0E0,0E0,0E0,0E0,0E0,0E0,0E0,0E0,0E0,0E0,0E0,0E0,0E0,0E0,0E0,0E0,0E0,0E0,0E0,0E0,0E0,0E0,0E0,0E0,0E0,0E0,0E0,0E0,0E0,0E0,0E0,0E0,0E0,0E0,0E0,0E0,0E0,0E0,0E0,0E0,0E0,0E0,0E0,0E0,0E0,0E0,0E0,0E0,0E0],"parents":[2147483647,0,0,1,1,2,2,3,3,4,4,5,5,6,6,7,7,8,8,9,9,10,10,11,11,12,12,13,13,14,14,15,15,16,16,17,17,18,18,19,19,20,20,21,21,22,22,23,23,24,24,25,25,26,26,27,27,28,28,29,29,30,30,31,31,32,32,33,33,34,34,35,35,36,36,37,37,38,38,39,39,40,40,41,41,42,42,43,43,44,44,45,45,46,46,47,47,48,48,49,49,50,50,51,51,52,52,53,53,54,54,55,55,56,56,57,57,58,58,60,60,61,61,62,62],"right_children":[2,4,6,8,10,12,14,16,18,20,22,24,26,28,30,32,34,36,38,40,42,44,46,48,50,52,54,56,58,60,62,64,66,68,70,72,74,76,78,80,82,84,86,88,90,92,94,96,98,100,102,104,106,108,110,112,114,116,118,-1,120,122,124,-1,-1,-1,-1,-1,-1,-1,-1,-1,-1,-1,-1,-1,-1,-1,-1,-1,-1,-1,-1,-1,-1,-1,-1,-1,-1,-1,-1,-1,-1,-1,-1,-1,-1,-1,-1,-1,-1,-1,-1,-1,-1,-1,-1,-1,-1,-1,-1,-1,-1,-1,-1,-1,-1,-1,-1,-1,-1,-1,-1,-1,-1],"split_conditions":[3.0408347E-1,-8.653786E-1,1E0,-2.5356E0,1E0,8.888145E-1,9.87E-1,-4.844E-1,-5.176E-1,2.1298E0,3.8440194E-2,1.0439063E0,2.773308E0,-1.3289938E0,1.525E-1,-3.6374626E-1,-8.802E-1,-8.077E-1,1.8482792E0,-1.224E-1,-1.2972E0,-2.1736E0,-9.268E-1,-2.7366464E0,1.1645623E0,2.7331E0,2.981E-1,8.238E-1,1.4039E0,2.798E-1,1.35E-1,-8.4637004E-1,1.9931479E-1,-1.3692124E0,1.189E-1,-1.1521E0,-6.083E-1,-1.6105243E0,-6.453E-1,-1.2246E0,1.189E-1,2.17E0,-7.714E-1,1.591E-1,-1.1159E0,-4.53E-2,8.06E-2,-7.257E-1,-2.4953346E0,9.87E-2,-2.035E-1,1.5667E0,4.069E-1,3.01462E0,-1.2486E0,1.4975E0,-2.029E-1,2.6124E0,1.4221E0,2.3170997E-1,-8.464E-1,3.898E-1,1.5265301E0,4.2909622E-2,2.8004366E-1,-3.5238647E-1,2.9819066E-2,4.7952157E-2,-2.3055153E-1,-1.308933E-1,1.02833286E-1,-3.3677533E-2,-1.3795773E-2,-6.336226E-2,-4.3101725E-1,-3.808668E-1,5.5231404E-2,1.1465614E-1,4.561369E-1,-5.876975E-2,-5.747384E-3,-5.2109864E-2,-2.0429138E-2,3.4679163E-1,-2.0797439E-1,-8.311705E-2,9.613541E-2,-5.4360203E-2,3.2669246E-1,1.4220951E-1,-1.5745157E-2,-6.600317E-2,-7.5965055E-4,6.847078E-3,4.6851076E-2,-6.4404696E-2,2.1892634E-1,-1.6958189E-1,-9.256504E-3,2.455843E-2,3.0369163E-1,-2.7153462E-2,4.8407868E-2,1.4936564E-2,-2.3873959E-2,3.986751E-1,-2.9373469E-2,3.0450737E-1,-2.0321548E-1,-3.2638624E-2,4.1261128E-1,-1.2436834E-2,2.6082042E-1,3.5312742E-2,-2.568243E-1,2.1029059E-2,-3.6733735E-1,-3.6600992E-1,-3.321259E-2,-3.4662524E-1,-8.246713E-2,3.284827E-1,-1.3312879E-1,3.2573905E-2,5.7193242E-2],"split_indices":[6,6,8,0,8,6,5,3,5,0,7,7,7,7,1,7,5,5,7,0,5,0,0,7,7,0,5,5,2,3,2,7,7,7,3,5,2,7,0,2,0,3,5,3,5,1,5,3,7,2,1,0,5,7,0,1,3,3,2,0,0,1,7,0,0,0,0,0,0,0,0,0,0,0,0,0,0,0,0,0,0,0,0,0,0,0,0,0,0,0,0,0,0,0,0,0,0,0,0,0,0,0,0,0,0,0,0,0,0,0,0,0,0,0,0,0,0,0,0,0,0,0,0,0,0],"split_type":[0,0,0,0,0,0,0,0,0,0,0,0,0,0,0,0,0,0,0,0,0,0,0,0,0,0,0,0,0,0,0,0,0,0,0,0,0,0,0,0,0,0,0,0,0,0,0,0,0,0,0,0,0,0,0,0,0,0,0,0,0,0,0,0,0,0,0,0,0,0,0,0,0,0,0,0,0,0,0,0,0,0,0,0,0,0,0,0,0,0,0,0,0,0,0,0,0,0,0,0,0,0,0,0,0,0,0,0,0,0,0,0,0,0,0,0,0,0,0,0,0,0,0,0,0],"sum_hessian":[6.522E4,3.2698E4,3.2522E4,1.1179E4,2.1519E4,1.6142E4,1.638E4,5E1,1.1129E4,1.1124E4,1.0395E4,5.362E3,1.078E4,3.611E3,1.2769E4,1.5E1,3.5E1,1.1078E4,5.1E1,1.0981E4,1.43E2,5.237E3,5.158E3,4.55E3,8.12E2,1.0756E4,2.4E1,3.26E2,3.285E3,7E0,1.2762E4,7E0,8E0,2.8E1,7E0,1.0729E4,3.49E2,4.8E1,3E0,4.188E3,6.793E3,1.3E1,1.3E2,6E1,5.177E3,7.38E2,4.42E3,1.9E1,4.531E3,1.32E2,6.8E2,1.0733E4,2.3E1,8E0,1.6E1,2.41E2,8.5E1,3.12E3,1.65E2,1E0,6E0,1.9E1,1.2743E4,2E0,5E0,5E0,3E0,2E0,2.6E1,4E0,3E0,8.754E3,1.975E3,3.44E2,5E0,1E0,4.7E1,1E0,2E0,4.44E2,3.744E3,9.39E2,5.854E3,1.2E1,1E0,6.4E1,6.6E1,3.5E1,2.5E1,3.2E1,5.145E3,4.29E2,3.09E2,3.614E3,8.06E2,6E0,1.3E1,1.6E1,4.515E3,8.9E1,4.3E1,4.87E2,1.93E2,1.0159E4,5.74E2,1E1,1.3E1,2E0,6E0,3E0,1.3E1,2.3E2,1.1E1,3E1,5.5E1,3.115E3,5E0,1.1E1,1.54E2,5E0,1E0,1.5E1,4E0,1.1891E4,8.52E2],"tree_param":{"num_deleted":"0","num_feature":"9","num_nodes":"125","size_leaf_vector":"1"}},{"base_weights":[4.0265436E-6,-4.2573158E-2,4.281162E-2,-5.9200376E-2,-7.5570475E-3,6.8987324E-3,6.535074E-2,-1.0842124E-1,-5.3166877E-2,-6.1491914E-2,8.271224E-3,5.5720735E-2,-4.340199E-3,4.882127E-2,8.870569E-2,-1.1657811E-1,6.188372E-1,8.530612E-2,-5.774848E-2,-7.837763E-2,3.3830625E-1,1.3846767E-1,-5.095132E-3,6.668778E-2,-7.657746E-1,-3.2986307E-1,-1.2459964E-3,-1.2797406E-1,5.2833676E-2,2.4846362E-1,8.3536655E-2,-1.20739534E-1,1.1396587E0,-3.0531847E-1,7.904715E-1,-4.3634656E-1,1.1107479E-1,-2.6278603E-1,-5.5128153E-2,3.1980336E-1,-9.76321E-2,8.4133834E-1,5.9475333E-5,2.3094562E-1,-5.0371308E-2,-6.745981E-3,7.1070194E-1,2.5549127E-2,1.7632872E-1,-1.8039575E0,-2.5906536E-1,3.8031036E-1,-3.6002377E-1,-2.2497768E-2,3.837171E-2,-2.9203596E-2,-4.497137E-1,5.09889E-1,5.017804E-2,-4.2933878E-1,2.8894758E-1,-4.24285E-2,8.7711215E-2,-5.6674056E-2,-1.8931923E-2,3.730715E-1,6.1840262E-2,1.7059103E-1,5.438835E-1,-2.2127657E-1,4.5310196E-2,-2.7761614E-1,3.7433304E-2,-1.6963394E-1,-9.836973E-3,-8.071682E-3,-1.9914642E-2,-2.535621E-1,1.5633781E-1,-2.3984943E-2,-1.4590786E-1,-4.196127E-2,3.5535288E-1,1.973805E-1,-7.8009665E-2,6.250348E-2,4.8608133E-1,2.5528696E-1,-3.2233696E-2,-1.1821418E-2,7.5249677E-3,2.7551875E-1,8.567276E-3,9.926978E-3,-2.2907695E-1,6.4244196E-2,-1.8522653E-1,-6.481825E-1,-7.547074E-2,1.7212925E-2,-2.4600317E-1,-1.6191404E-1,-1.8210151E-3,-2.1067457E-4,-2.9337674E-2,-1.3225691E-1,1.4929243E-2,8.4328145E-2,-4.645628E-2,-1.630204E-1,3.0635548E-1,2.710939E-1,-7.0954063E-3,9.157025E-3,2.4823966E-2,1.8582691E-1,-4.2733E-1,3.5149917E-1,7.7418715E-2,-2.422444E-2,3.4954602E-1,4.8343293E-2,2.2777665E-2],"categories":[],"categories_nodes":[],"categories_segments":[],"categories_sizes":[],"default_left":[0,0,0,0,0,0,1,1,0,1,0,0,0,0,0,0,0,0,0,0,0,0,1,1,0,0,1,1,0,0,0,1,0,0,0,0,0,0,0,0,0,0,0,0,0,0,1,1,0,0,1,0,0,1,0,0,0,0,1,0,0,0,0,0,0,0,0,0,0,0,0,0,0,0,0,0,0,0,0,0,0,0,0,0,0,0,0,0,0,0,0,0,0,0,0,0,0,0,0,0,0,0,0,0,0,0,0,0,0,0,0,0,0,0,0,0,0,0,0,0,0,0,0],"id":13,"left_children":[1,3,5,7,9,11,13,15,17,19,21,23,25,27,29,31,33,35,37,39,41,43,45,47,49,51,53,55,57,59,61,63,65,-1,67,69,71,73,75,77,79,81,83,85,87,89,91,93,95,97,99,-1,101,103,105,107,109,111,113,115,117,119,121,-1,-1,-1,-1,-1,-1,-1,-1,-1,-1,-1,-1,-1,-1,-1,-1,-1,-1,-1,-1,-1,-1,-1,-1,-1,-1,-1,-1,-1,-1,-1,-1,-1,-1,-1,-1,-1,-1,-1,-1,-1,-1,-1,-1,-1,-1,-1,-1,-1,-1,-1,-1,-1,-1,-1,-1,-1,-1,-1,-1],"loss_changes":[1.1887537E2,1.9037582E1,2.6325123E1,6.5784454E0,8.989071E0,6.8821263E0,7.7096252E0,1.4427959E1,1.2536156E1,1.6154354E1,1.4168097E1,2.1196066E1,1.0269344E1,8.308571E0,6.816818E0,1.2652794E1,8.388536E0,8.55744E0,1.025803E1,1.7611124E1,1.6504402E1,1.3248921E1,8.730267E0,1.0446278E1,1.5840422E1,5.0820303E0,8.5053625E0,8.249245E0,1.3864824E1,7.2310495E0,4.222084E0,9.366791E0,5.1970005E-1,0E0,4.639597E0,5.4197116E0,8.693789E0,1.6757643E1,5.994812E0,2.5302013E1,1.500054E1,1.3297861E1,1.0266454E1,1.5644886E1,1.2952105E1,7.660039E0,2.382285E0,1.005821E1,1.9103935E1,4.993065E0,3.952192E0,0E0,6.0388985E0,1.0790046E1,1.9277857E1,7.8413434E0,8.961016E0,1.3887011E1,7.2814217E0,1.6536583E1,6.377043E0,1.2032799E1,6.708042E0,0E0,0E0,0E0,0E0,0E0,0E0,0E0,0E0,0E0,0E0,0E0,0E0,0E0,0E0,0E0,0E0,0E0,0E0,0E0,0E0,0E0,0E0,0E0,0E0,0E0,0E0,0E0,0E0,0E0,0E0,0E0,0E0,0E0,0E0,0E0,0E0,0E0,0E0,0E0,0E0,0E0,0E0,0E0,0E0,0E0,0E0,0E0,0E0,0E0,0E0,0E0,0E0,0E0,0E0,0E0,0E0,0E0,0E0,0E0,0E0],"parents":[2147483647,0,0,1,1,2,2,3,3,4,4,5,5,6,6,7,7,8,8,9,9,10,10,11,11,12,12,13,13,14,14,15,15,16,16,17,17,18,18,19,19,20,20,21,21,22,22,23,23,24,24,25,25,26,26,27,27,28,28,29,29,30,30,31,31,32,32,34,34,35,35,36,36,37,37,38,38,39,39,40,40,41,41,42,42,43,43,44,44,45,45,46,46,47,47,48,48,49,49,50,50,52,52,53,53,54,54,55,55,56,56,57,57,58,58,59,59,60,60,61,61,62,62],"right_children":[2,4,6,8,10,12,14,16,18,20,22,24,26,28,30,32,34,36,38,40,42,44,46,48,50,52,54,56,58,60,62,64,66,-1,68,70,72,74,76,78,80,82,84,86,88,90,92,94,96,98,100,-1,102,104,106,108,110,112,114,116,118,120,122,-1,-1,-1,-1,-1,-1,-1,-1,-1,-1,-1,-1,-1,-1,-1,-1,-1,-1,-1,-1,-1,-1,-1,-1,-1,-1,-1,-1,-1,-1,-1,-1,-1,-1,-1,-1,-1,-1,-1,-1,-1,-1,-1,-1,-1,-1,-1,-1,-1,-1,-1,-1,-1,-1,-1,-1,-1,-1,-1,-1],"split_conditions":[3.0408347E-1,-2.8064758E-1,6.969E-1,-1.3902E0,-6.051E-1,-8.866E-1,1.0051E0,-6.627E-1,-1.4784E0,1.6472E0,-3.637E-1,9.832E-1,-6.264E-1,-1.7312E0,1.0414E0,2.5722E0,-1.1279E0,-1.7714E0,-1.4603E0,-1.5703E0,1.9287E0,3.503E-1,2.894E0,3.107E-1,-1.5301E0,-1.0977E0,2.395E-1,7.063E-1,-1.6105E0,-1.6507E0,6.668E-1,-3.637E-1,2.1298E0,-3.0531847E-1,6.819385E-1,-1.0252E0,-2.2540226E0,7.87E-2,-3.637E-1,-1.6105E0,-6.453E-1,-1.6105E0,-4.633E-1,2.437E-1,-1.4898684E0,6.819E-1,1.129E-1,8.42E-1,6.788E-1,4.808E-1,9.437E-1,3.8031036E-1,5.613E-1,-2.029E-1,-5.358E-1,3.84E-2,1.1243436E0,1.1019E0,-2.029E-1,-1.2243439E-1,-2.0127108E0,1.3858E0,1.1139E0,-5.6674056E-2,-1.8931923E-2,3.730715E-1,6.1840262E-2,1.7059103E-1,5.438835E-1,-2.2127657E-1,4.5310196E-2,-2.7761614E-1,3.7433304E-2,-1.6963394E-1,-9.836973E-3,-8.071682E-3,-1.9914642E-2,-2.535621E-1,1.5633781E-1,-2.3984943E-2,-1.4590786E-1,-4.196127E-2,3.5535288E-1,1.973805E-1,-7.8009665E-2,6.250348E-2,4.8608133E-1,2.5528696E-1,-3.2233696E-2,-1.1821418E-2,7.5249677E-3,2.7551875E-1,8.567276E-3,9.926978E-3,-2.2907695E-1,6.4244196E-2,-1.8522653E-1,-6.481825E-1,-7.547074E-2,1.7212925E-2,-2.4600317E-1,-1.6191404E-1,-1.8210151E-3,-2.1067457E-4,-2.9337674E-2,-1.3225691E-1,1.4929243E-2,8.4328145E-2,-4.645628E-2,-1.630204E-1,3.0635548E-1,2.710939E-1,-7.0954063E-3,9.157025E-3,2.4823966E-2,1.8582691E-1,-4.2733E-1,3.5149917E-1,7.7418715E-2,-2.422444E-2,3.4954602E-1,4.8343293E-2,2.2777665E-2],"split_indices":[6,6,2,1,0,0,5,5,2,3,0,1,5,0,5,0,3,0,2,3,3,4,0,4,0,5,3,4,0,3,4,3,3,0,7,5,7,3,0,0,0,0,5,5,7,0,4,5,2,3,4,0,3,3,2,3,7,4,0,7,7,5,2,0,0,0,0,0,0,0,0,0,0,0,0,0,0,0,0,0,0,0,0,0,0,0,0,0,0,0,0,0,0,0,0,0,0,0,0,0,0,0,0,0,0,0,0,0,0,0,0,0,0,0,0,0,0,0,0,0,0,0,0],"split_type":[0,0,0,0,0,0,0,0,0,0,0,0,0,0,0,0,0,0,0,0,0,0,0,0,0,0,0,0,0,0,0,0,0,0,0,0,0,0,0,0,0,0,0,0,0,0,0,0,0,0,0,0,0,0,0,0,0,0,0,0,0,0,0,0,0,0,0,0,0,0,0,0,0,0,0,0,0,0,0,0,0,0,0,0,0,0,0,0,0,0,0,0,0,0,0,0,0,0,0,0,0,0,0,0,0,0,0,0,0,0,0,0,0,0,0,0,0,0,0,0,0,0,0],"sum_hessian":[6.522E4,3.2698E4,3.2522E4,2.217E4,1.0528E4,1.2541E4,1.9981E4,2.419E3,1.9751E4,2.388E3,8.14E3,2.346E3,1.0195E4,1.1702E4,8.279E3,2.393E3,2.6E1,6.32E2,1.9119E4,2.292E3,9.6E1,7.57E2,7.383E3,2.316E3,3E1,9.5E1,1.01E4,2.59E2,1.1443E4,2.58E2,8.021E3,2.386E3,7E0,2E0,2.4E1,2.9E1,6.03E2,2.4E2,1.8879E4,1.05E2,2.187E3,3.8E1,5.8E1,5.08E2,2.49E2,7.367E3,1.6E1,1.685E3,6.31E2,9E0,2.1E1,1E0,9.4E1,6.574E3,3.526E3,1.99E2,6E1,6.5E1,1.1378E4,1.4E1,2.44E2,2.57E2,7.764E3,1.092E3,1.294E3,6E0,1E0,2.1E1,3E0,1.9E1,1E1,7E0,5.96E2,1.03E2,1.37E2,5.383E3,1.3496E4,1.5E1,9E1,2.093E3,9.4E1,1E1,2.8E1,1.6E1,4.2E1,5.01E2,7E0,1.4E1,2.35E2,3.636E3,3.731E3,1.2E1,4E0,1.67E3,1.5E1,6.03E2,2.8E1,7E0,2E0,1.4E1,7E0,6.2E1,3.2E1,5.099E3,1.475E3,8.1E1,3.445E3,5.7E1,1.42E2,5.7E1,3E0,3.7E1,2.8E1,7.097E3,4.281E3,7E0,7E0,7E0,2.37E2,2.5E2,7E0,1.072E3,6.692E3],"tree_param":{"num_deleted":"0","num_feature":"9","num_nodes":"123","size_leaf_vector":"1"}},{"base_weights":[2.1258365E-5,-2.1494068E-2,4.3610908E-2,-3.7023097E-2,8.903942E-3,1.4552215E-2,6.385295E-2,-3.8512178E-2,1.5209544E-1,-1.6842143E-3,7.276645E-2,1.2880322E-2,6.2892413E-1,1.9643994E-1,5.8461268E-2,-3.8227346E-2,-8.512406E-1,-5.2255142E-2,3.798522E-1,-3.874681E-4,-4.326374E-1,2.1067223E-1,3.133262E-2,-1.2439125E-2,4.2308E-2,1.2093409E-1,1.0494592E0,-3.817783E-1,2.2027206E-1,-5.377501E-2,6.600005E-2,-4.263188E-2,1.5874919E-2,-4.8920968E-1,2.5435752E-1,3.8407996E-2,-1.0533905E0,5.939615E-1,-3.1002513E-1,-3.3797019E-3,2.7049923E-1,-6.9222057E-1,3.6341754E-1,1.6596276E-1,8.3840454E-1,2.362111E-2,9.804042E-1,-6.0206648E-2,4.282146E-2,7.191496E-2,-2.8966723E-2,-1.8758936E-1,3.3271027E-1,1.4364158E0,3.586073E-1,2.4142373E-1,-7.3591965E-1,1.9968739E-1,8.867735E-1,-2.2150537E-1,7.015637E-2,6.195519E-1,6.4295806E-2,-1.2861345E-2,2.6083186E-1,-3.0776484E-2,1.8083727E-2,2.177609E-1,-2.4475366E-1,5.3807754E-2,-1.0989852E-1,-4.913821E-1,6.987577E-2,2.6344217E-2,2.4056633E-1,3.734856E-1,-1.948011E-1,1.428777E-3,-1.8222174E-2,1.426545E-2,1.8814792E-1,-2.6535583E-1,-2.3061348E-2,-9.304844E-2,3.2970867E-1,6.9188125E-2,-5.9456345E-2,3.0174452E-1,-3.3455077E-1,8.806719E-3,-2.9878286E-1,4.551876E-1,1.3655639E-1,-1.3986154E-2,-1.5791813E-1,-2.620586E-2,2.0675447E-2,-1.9611237E-3,3.726603E-2,1.0865743E-1,-1.9934576E-2,-1.1785198E-2,1.4932452E-1,1.7210026E-1,4.885162E-1,-5.8829308E-2,2.0549527E-1,-1.6464272E-1,1.7889085E-1,-1.2488792E-1,-4.987732E-1,1.1238283E-1,3.8031675E-2,-3.5278276E-2,3.5141474E-1,-1.6751374E-1,-2.9118624E-2,8.7989934E-2,-3.5428103E-2,-2.3841606E-1,3.4190217E-1,6.0407024E-2,1.8309148E-2],"categories":[],"categories_nodes":[],"categories_segments":[],"categories_sizes":[],"default_left":[0,1,0,0,0,0,0,1,1,1,0,0,1,0,0,1,0,1,1,1,0,0,1,1,0,0,0,0,1,0,0,1,0,0,1,1,0,0,0,1,0,0,0,1,0,1,0,0,0,1,0,0,0,0,0,0,1,0,0,1,0,0,0,0,0,0,0,0,0,0,0,0,0,0,0,0,0,0,0,0,0,0,0,0,0,0,0,0,0,0,0,0,0,0,0,0,0,0,0,0,0,0,0,0,0,0,0,0,0,0,0,0,0,0,0,0,0,0,0,0,0,0,0],"id":14,"left_children":[1,3,5,7,9,11,13,15,17,19,21,23,25,27,29,31,33,35,37,39,41,43,45,47,49,51,53,55,57,59,61,63,65,-1,67,69,71,73,75,77,79,81,83,85,87,89,91,93,95,97,99,-1,101,103,105,107,109,111,113,115,117,119,121,-1,-1,-1,-1,-1,-1,-1,-1,-1,-1,-1,-1,-1,-1,-1,-1,-1,-1,-1,-1,-1,-1,-1,-1,-1,-1,-1,-1,-1,-1,-1,-1,-1,-1,-1,-1,-1,-1,-1,-1,-1,-1,-1,-1,-1,-1,-1,-1,-1,-1,-1,-1,-1,-1,-1,-1,-1,-1,-1,-1],"loss_changes":[6.116816E1,2.0613878E1,1.2677288E1,8.145294E0,9.984688E0,9.083333E0,9.070179E0,6.6061172E0,1.0538393E1,7.0786195E0,1.1992726E1,6.578203E0,5.000148E0,6.9190598E0,1.0333893E1,6.832363E0,9.032457E0,1.0932387E1,1.5989017E1,1.0238241E1,8.103979E0,1.3472668E1,1.1803982E1,1.253041E1,8.618145E0,